#ifndef WEIGHTS_H
#define WEIGHTS_H

float conv_weights[4][3][3] = {
  {
    {0.3473072946071625f, -0.15755634009838104f, -0.3112240433692932f},
    {0.2452472299337387f, 0.195750892162323f, -0.22996945679187775f},
    {-0.08097930252552032f, 0.3197794258594513f, 0.25227633118629456f},
  },
  {
    {-0.317605197429657f, 0.10318019241094589f, 0.34897804260253906f},
    {0.4636697471141815f, 0.4134290814399719f, 0.023493390530347824f},
    {-0.40504714846611023f, -0.5464192032814026f, -0.5905940532684326f},
  },
  {
    {-0.3860741853713989f, -0.24096879363059998f, 0.05975673720240593f},
    {-0.19638021290302277f, 0.018771452829241753f, 0.3761970102787018f},
    {-0.4348841607570648f, -0.13737578690052032f, 0.08851394802331924f},
  },
  {
    {0.5180268883705139f, -0.6098803877830505f, 0.04530366137623787f},
    {0.3238244354724884f, -0.8843417167663574f, 0.34134727716445923f},
    {0.0333218015730381f, -0.29660820960998535f, 0.22469748556613922f},
  },
};

float conv_bias[4] = {-0.8746251463890076f, -0.19838660955429077f, -0.15030553936958313f, -0.448962926864624f};

float fc_weights[10][676] = {
  {-0.19260582327842712f, -0.2365553081035614f, -0.39520037174224854f, -0.5853090882301331f, -0.3513517677783966f, -0.7930608987808228f, -0.4607263505458832f, -0.6213796734809875f, -0.32673966884613037f, -0.35485270619392395f, -0.26385602355003357f, -0.2021322101354599f, -0.16138304769992828f, -0.14899680018424988f, -0.2899554371833801f, -0.3083295226097107f, -0.2921058237552643f, -0.1898365616798401f, -0.2483232170343399f, -0.18333829939365387f, -0.17024864256381989f, -0.13337621092796326f, -0.057610370218753815f, -0.14386792480945587f, -0.23823097348213196f, -0.17141680419445038f, -0.18769647181034088f, -0.2408357560634613f, -0.2538697123527527f, -0.24836689233779907f, -0.14445218443870544f, -0.06547771394252777f, 0.00657884543761611f, 0.004611383657902479f, 0.006568264681845903f, 0.029664965346455574f, 0.05819638818502426f, 0.13731512427330017f, -0.10693246126174927f, -0.06288225203752518f, -0.05722136050462723f, -0.059543341398239136f, -0.0028560273349285126f, -0.10188475251197815f, -0.030216632410883904f, 0.09429492056369781f, 0.21730530261993408f, 0.22047501802444458f, 0.3146781623363495f, 0.13290894031524658f, 0.16869473457336426f, -0.024296414107084274f, -0.12843763828277588f, -0.10804446786642075f, -0.16395972669124603f, -0.06456509977579117f, -0.06711030006408691f, -0.098179891705513f, 0.011645402759313583f, 0.19846946001052856f, 0.2916147708892822f, 0.30785447359085083f, 0.22053228318691254f, 0.07203787565231323f, 0.02105114795267582f, -0.15413501858711243f, -0.09756774455308914f, -0.1920776516199112f, -0.1798950582742691f, -0.12422017753124237f, -0.05535903573036194f, -0.11389078944921494f, -0.13011416792869568f, -0.009209773503243923f, 0.07475010305643082f, 0.22442470490932465f, 0.1603211611509323f, 0.13913831114768982f, -0.010035808198153973f, 0.08304483443498611f, -0.12014857679605484f, 0.041902635246515274f, 0.03286001831293106f, 0.12001953274011612f, -0.1437147706747055f, -0.42145588994026184f, -0.4558195471763611f, -0.2255527824163437f, 0.1613745242357254f, 0.3242824375629425f, 0.10522773861885071f, -0.24666039645671844f, 0.1078280583024025f, 0.021753927692770958f, 0.20281992852687836f, 0.1340329349040985f, 0.0705631896853447f, -0.32609036564826965f, -0.5497798323631287f, -0.5206120610237122f, -0.22372235357761383f, 0.013500437140464783f, 0.18017767369747162f, 0.13196104764938354f, -0.3453892469406128f, 0.12729200720787048f, 0.07982630282640457f, 0.21452564001083374f, 0.18455646932125092f, 0.28834301233291626f, -0.18532699346542358f, -0.5266032218933105f, -0.2484995722770691f, -0.2056894600391388f, -0.09269348531961441f, 0.23124703764915466f, 0.0005295342416502535f, -0.16300038993358612f, 0.07835711538791656f, -0.02175525389611721f, 0.03437322378158569f, 0.18274229764938354f, 0.14212583005428314f, -0.01922416128218174f, -0.19111405313014984f, -0.1866004467010498f, -0.16991139948368073f, -0.03371838107705116f, 0.04250992834568024f, -0.02313600666821003f, -0.09709388762712479f, 0.012035936117172241f, 0.011754106730222702f, 0.013072668574750423f, 0.11611480265855789f, 0.0940747931599617f, -0.033549875020980835f, -0.06602440774440765f, -0.08702894300222397f, -0.1736392080783844f, -0.12391545623540878f, 0.08353234827518463f, -0.29437339305877686f, -0.21348761022090912f, -0.11510445177555084f, -0.030285047367215157f, 0.08245886862277985f, 0.13083809614181519f, 0.22955583035945892f, 0.07747245579957962f, -0.014589290134608746f, -0.03662845864892006f, -0.23622700572013855f, -0.30613279342651367f, -0.20139825344085693f, -0.4100985527038574f, -0.14476755261421204f, -0.1982296258211136f, -0.26058652997016907f, -0.058297496289014816f, -0.14097140729427338f, -0.164834126830101f, -0.14310245215892792f, -0.17635202407836914f, -0.20576846599578857f, -0.35971423983573914f, -0.49589604139328003f, -0.4652961790561676f, -0.23704493045806885f, 0.1386490762233734f, 0.05641896650195122f, 0.004111516289412975f, -0.12562647461891174f, -0.09342024475336075f, -0.10096703469753265f, -0.10052090138196945f, -0.24117426574230194f, -0.06659457087516785f, -0.1472240388393402f, -0.1332796961069107f, 0.028061680495738983f, -0.2729946970939636f, 0.04925980418920517f, 0.02953742817044258f, -0.04099416732788086f, -0.18979354202747345f, -0.06539378315210342f, -0.09068992733955383f, -0.14737103879451752f, -0.025691524147987366f, -0.11158210039138794f, -0.20822066068649292f, -0.17458580434322357f, -0.5787418484687805f, -0.351797878742218f, -0.13098697364330292f, -0.3170122504234314f, -0.1789935976266861f, -0.22903448343276978f, -0.2416548728942871f, -0.20662133395671844f, 0.006699974182993174f, -0.04593530297279358f, -0.09450685977935791f, -0.17133185267448425f, -0.17717474699020386f, -0.26401299238204956f, -0.545500636100769f, -0.2023864984512329f, -0.08593198657035828f, -0.041514020413160324f, -0.2315390557050705f, -0.18302930891513824f, -0.10677210241556168f, -0.09803007543087006f, -0.04712337628006935f, 0.004062637221068144f, -0.12477082759141922f, -0.04757414758205414f, -0.03307681903243065f, -0.2835931181907654f, 0.1230960413813591f, -0.10761799663305283f, -0.11994247138500214f, -0.14932352304458618f, -0.09834274649620056f, -0.10602762550115585f, -0.10423386842012405f, -0.05619366466999054f, 0.027284210547804832f, 0.017531858757138252f, -0.035771023482084274f, -0.02845458686351776f, -0.5971246957778931f, -0.055521514266729355f, -0.2100430727005005f, -0.14481405913829803f, -0.11134527623653412f, -0.14989180862903595f, -0.13557572662830353f, -0.18287160992622375f, -0.24597135186195374f, -0.20700281858444214f, -0.08068261295557022f, -0.03830764815211296f, -0.017209844663739204f, -0.5231440663337708f, -0.098709836602211f, -0.2930261492729187f, -0.023498617112636566f, -0.14165160059928894f, -0.14208179712295532f, -0.2143278867006302f, -0.4158959686756134f, -0.4819905757904053f, -0.295908659696579f, -0.08286900073289871f, 0.04775020480155945f, -0.03943556547164917f, -0.2865152359008789f, -0.395145982503891f, -0.1324131190776825f, 0.021618513390421867f, 0.011321211233735085f, 0.016385849565267563f, -0.20218223333358765f, -0.6300984025001526f, -0.5546071529388428f, -0.24910221993923187f, -0.0842096284031868f, 0.040694709867239f, 0.005285835824906826f, -0.23118144273757935f, -0.3113556206226349f, -0.06487960368394852f, 0.013505187816917896f, -0.014103103429079056f, -0.07462386041879654f, -0.4022238552570343f, -0.5277713537216187f, -0.09634213894605637f, 0.027307340875267982f, 0.03829105198383331f, 0.019177280366420746f, -0.05453850328922272f, -0.5124303102493286f, -0.13549652695655823f, -0.13330674171447754f, 0.018329106271266937f, 0.07756832987070084f, 0.07099268585443497f, -0.013872942887246609f, -0.023791953921318054f, 0.05615009367465973f, -0.021865108981728554f, -0.026801403611898422f, 0.0038616154342889786f, -0.18153420090675354f, -0.6420376300811768f, -0.07918635755777359f, 0.01672450080513954f, -0.05322437733411789f, 0.03320439159870148f, 0.12106788158416748f, 0.012164702638983727f, -0.03666789084672928f, -0.051057156175374985f, -0.034393128007650375f, -0.06124429404735565f, 0.0012453412637114525f, -0.11679214239120483f, -0.34567779302597046f, -0.5022338628768921f, -0.2714700996875763f, 0.01795193739235401f, 0.07595682889223099f, 0.06851685792207718f, 0.15687988698482513f, 0.2340010702610016f, 0.2075476348400116f, 0.05579302832484245f, -0.136587992310524f, -0.047959718853235245f, -0.34410765767097473f, -0.3007544279098511f, -0.14026369154453278f, -0.2278190404176712f, -0.4172036051750183f, -0.3254328668117523f, -0.2519960403442383f, -0.20310717821121216f, -0.18629190325737f, -0.4157547354698181f, -0.5961591005325317f, -0.5977275967597961f, -0.7263311743736267f, -0.18976569175720215f, 0.03187800943851471f, -0.05808354914188385f, -0.008484943769872189f, -0.02156655862927437f, -0.09964063763618469f, -0.06918201595544815f, -0.09428095072507858f, -0.09731495380401611f, -0.025339873507618904f, -0.03511986881494522f, -0.007463027723133564f, -0.003499627113342285f, -0.008394326083362103f, -0.05569111183285713f, -0.021872594952583313f, -0.030374307185411453f, -0.08472073078155518f, -0.08714769780635834f, -0.1680680364370346f, -0.06781212240457535f, 0.029828868806362152f, 0.008149168454110622f, -0.033049628138542175f, -0.04163229092955589f, -0.03345770016312599f, -0.03155430406332016f, -0.0019800462760031223f, -0.05873217061161995f, 0.013005637563765049f, -0.07127489894628525f, -0.21856442093849182f, -0.05314018204808235f, -0.13664071261882782f, -0.08550506830215454f, 0.1776600182056427f, 0.03212724253535271f, -0.040383245795965195f, -0.09479806572198868f, -0.055777180939912796f, -0.03338044509291649f, 0.02403588779270649f, -0.06531916558742523f, -0.19510462880134583f, -0.26323413848876953f, -0.054162997752428055f, -0.21933236718177795f, -0.03950773552060127f, -0.13557787239551544f, -0.07343979924917221f, -0.21984826028347015f, -0.07438047975301743f, -0.030278697609901428f, -0.028357597067952156f, -0.04075046256184578f, -0.07327587902545929f, -0.03242117166519165f, -0.17203675210475922f, -0.019123926758766174f, 0.056636616587638855f, -0.12903788685798645f, -0.005168872885406017f, 0.021955985575914383f, 0.09682388603687286f, 0.1539403349161148f, 0.06932394951581955f, 0.03739059716463089f, -0.061866771429777145f, 0.011887558735907078f, 0.06531794369220734f, -0.1290552169084549f, 0.10114814341068268f, -0.05961905047297478f, -0.40074485540390015f, 0.1826753169298172f, 0.2285589575767517f, 0.3785131871700287f, 0.3082043528556824f, 0.10297317057847977f, 0.023210586979985237f, -0.0756913274526596f, 0.08812381327152252f, 0.17322780191898346f, 0.05937086418271065f, 0.17808522284030914f, -0.11320557445287704f, -0.28210434317588806f, 0.40221256017684937f, 0.507824718952179f, 0.4143119156360626f, 0.2576151490211487f, 0.013112468644976616f, 0.0066796764731407166f, -0.0506475605070591f, 0.06741861253976822f, 0.18272775411605835f, 0.17024199664592743f, 0.05198607221245766f, -0.29101043939590454f, -0.10744207352399826f, 0.4399338960647583f, 0.3183780014514923f, 0.24233733117580414f, 0.10893210023641586f, -0.09060467779636383f, -0.007387817837297916f, -0.08391004800796509f, 0.04662870243191719f, 0.15845489501953125f, 0.09119432419538498f, 0.08029789477586746f, -0.23683810234069824f, -0.07594159990549088f, 0.24820244312286377f, -0.015343297272920609f, 0.242828831076622f, 0.03161231055855751f, -0.10538691282272339f, -0.033425141125917435f, -0.08773685246706009f, -0.037136420607566833f, -0.009289441630244255f, 0.02079114317893982f, 0.27342820167541504f, -0.35376253724098206f, -0.3113139569759369f, -0.1353527307510376f, -0.14001455903053284f, 0.07577016204595566f, -0.04006977006793022f, -0.08494195342063904f, -0.005058819428086281f, -0.08007413893938065f, -0.03971761837601662f, -0.006972567643970251f, 0.039962708950042725f, 0.03413167595863342f, -0.37381115555763245f, -0.6953081488609314f, -0.4774647057056427f, -0.3930138349533081f, -0.07361552864313126f, -0.11076510697603226f, -0.0914139598608017f, -0.020177604630589485f, -0.06381454318761826f, -0.14843156933784485f, -0.013619814068078995f, 0.06835337728261948f, -0.06558316946029663f, -0.1977119892835617f, -0.5621486306190491f, -0.6614469289779663f, -0.25589829683303833f, -0.0871400311589241f, -0.038924843072891235f, -0.047374483197927475f, -0.025018516927957535f, -0.045924656093120575f, -0.08380723744630814f, -0.01319715566933155f, -0.0899023562669754f, -0.1779368370771408f, -0.15160523355007172f, -0.14505429565906525f, -0.12242332845926285f, -0.06803863495588303f, -0.04836555942893028f, -0.004678813274949789f, -0.04921528324484825f, 0.009577280841767788f, -0.08521145582199097f, 0.04650496691465378f, -0.18230746686458588f, -0.4521142840385437f, -0.5196582674980164f, -0.632642388343811f, -0.4156765043735504f, -0.593453586101532f, -0.21880269050598145f, -0.19185489416122437f, -0.4282151758670807f, -0.57082200050354f, -0.677591860294342f, -0.011358093470335007f, -0.2814686894416809f, -0.3495861887931824f, -0.1766171008348465f, -0.25775212049484253f, -0.23788610100746155f, -0.21270161867141724f, 0.013677004724740982f, -0.29838746786117554f, -0.34381377696990967f, -0.2076210230588913f, -0.4386037290096283f, -0.3040873408317566f, -0.23288068175315857f, -0.017595667392015457f, -0.29330164194107056f, -0.17315419018268585f, -0.06443172693252563f, -0.10106445103883743f, -0.16381344199180603f, 0.02675141952931881f, -0.31479811668395996f, -0.20932583510875702f, -0.28168001770973206f, -0.14841361343860626f, -0.21583449840545654f, -0.00906084943562746f, -0.08262359350919724f, -0.15488994121551514f, 0.01849105954170227f, -0.040460094809532166f, -0.19133521616458893f, -0.00555665697902441f, -0.11540958285331726f, -0.17246146500110626f, 0.08459293097257614f, -0.2579924166202545f, 0.19063863158226013f, 0.18198801577091217f, -0.59795081615448f, -0.029931209981441498f, -0.1736994981765747f, -0.12000017613172531f, -0.06428182870149612f, 0.15289081633090973f, 0.05868379399180412f, -0.18679605424404144f, 0.17071542143821716f, 0.19813813269138336f, 0.18566833436489105f, 0.2122229039669037f, 0.1201666072010994f, -0.18813775479793549f, 0.015023130923509598f, 0.06400654464960098f, -0.001572757726535201f, 0.28325822949409485f, 0.12722165882587433f, 0.09263375401496887f, 0.19846196472644806f, 0.06858443468809128f, 0.22791700065135956f, 0.315635621547699f, 0.32545506954193115f, 0.2131093442440033f, -0.18484601378440857f, 0.18651051819324493f, 0.09351421147584915f, 0.3683761656284332f, 0.3575788140296936f, 0.26119279861450195f, 0.4875800311565399f, 0.17686818540096283f, -0.15338844060897827f, -0.0027528645005077124f, 0.0023095570504665375f, 0.4202781617641449f, 0.26816698908805847f, -0.46311715245246887f, 0.2664128839969635f, 0.26323190331459045f, 0.47776132822036743f, 0.3049621880054474f, 0.42182376980781555f, 0.44044578075408936f, -0.09885991364717484f, -0.2669038772583008f, 0.08416973799467087f, 0.13433782756328583f, 0.07074262946844101f, 0.41571396589279175f, -0.3002142012119293f, 0.20126716792583466f, 0.2842017114162445f, 0.24517346918582916f, 0.45306310057640076f, 0.4573517143726349f, 0.2775004208087921f, -0.3381533920764923f, -0.091695137321949f, 0.05004391819238663f, 0.011871404945850372f, 0.15674149990081787f, 0.18244341015815735f, -0.23471814393997192f, 0.15872472524642944f, 0.1743982434272766f, 0.1546994000673294f, 0.5435304045677185f, 0.13004690408706665f, 0.06946837157011032f, -0.1434514969587326f, -0.08772685378789902f, -0.12783221900463104f, -0.07218386232852936f, 0.09086135029792786f, -0.0060775987803936005f, -0.19035165011882782f, 0.028788845986127853f, 0.2030419111251831f, 0.24854600429534912f, 0.1382921040058136f, 0.0952659547328949f, -0.2030876874923706f, -0.5852208733558655f, -0.4814385175704956f, -0.2972506880760193f, -0.3156592845916748f, 0.08607934415340424f, -0.28049662709236145f, -0.5291898846626282f, -0.18096613883972168f, -0.24791423976421356f, -0.04982375726103783f, -0.11677589267492294f, -0.2093200832605362f, -0.5282453298568726f, -0.5757429003715515f, -0.4417753219604492f, -0.36832743883132935f, -0.4383752942085266f, -0.01316839549690485f, -0.43036261200904846f, -0.10920626670122147f, -0.21895043551921844f, -0.3081144392490387f, -0.5563401579856873f, -0.5971418023109436f, -0.4021833837032318f, -0.7445416450500488f, -0.5916447639465332f, -0.4512007534503937f, -0.5368743538856506f, -0.6632477045059204f, -0.6888887882232666f, -0.26954102516174316f},
  {0.12850159406661987f, 0.16075339913368225f, 0.14671285450458527f, 0.02520366944372654f, -0.3425332307815552f, -0.48676392436027527f, -0.26755741238594055f, 0.02522696740925312f, -0.05628450587391853f, -0.25173062086105347f, -0.17021894454956055f, -0.035781651735305786f, 0.15153548121452332f, 0.14637520909309387f, 0.12835128605365753f, 0.31634464859962463f, 0.11864810436964035f, -0.049190834164619446f, -0.008671227842569351f, 0.0630684569478035f, 0.09518273174762726f, -0.05983863025903702f, -0.12849654257297516f, -0.05757714807987213f, -0.020419344305992126f, -0.1955733448266983f, 0.11210047453641891f, 0.16567271947860718f, 0.37303832173347473f, 0.1921035796403885f, -0.004102922976016998f, -0.05093476176261902f, -0.022282686084508896f, -0.01667475514113903f, -0.07796800136566162f, -0.00038126634899526834f, 0.03949238359928131f, 0.2002844661474228f, -0.13615091145038605f, 0.08722202479839325f, -0.1451539397239685f, 0.04960775002837181f, -0.08867014944553375f, -0.12703882157802582f, -0.07959944754838943f, -0.09567680954933167f, -0.04770027473568916f, -0.12929581105709076f, -0.08047690242528915f, 0.016960561275482178f, -0.04019756615161896f, -0.2585737705230713f, 0.10248332470655441f, -0.17413929104804993f, -0.1051865816116333f, -0.1741698682308197f, -0.18965089321136475f, -0.09292878210544586f, -0.06208418309688568f, 0.1676781177520752f, 0.04063107445836067f, -0.09190840274095535f, -0.14403893053531647f, -0.1260973960161209f, -0.18473564088344574f, 0.08051250129938126f, -0.15582489967346191f, -0.009760543704032898f, -0.23697444796562195f, -0.2954270839691162f, -0.20561403036117554f, -0.031849417835474014f, 0.2969668209552765f, 0.024200573563575745f, -0.022633809596300125f, -0.1769326627254486f, -0.2286866158246994f, -0.2866913974285126f, 0.12686169147491455f, -0.0893365889787674f, -0.06845998018980026f, -0.13641640543937683f, -0.32106444239616394f, -0.36807698011398315f, 0.028261063620448112f, 0.25037699937820435f, 0.017995037138462067f, -0.22244323790073395f, -0.2241302877664566f, -0.20766112208366394f, -0.037177201360464096f, 0.12393239885568619f, -0.1334022879600525f, -0.20880654454231262f, -0.262736976146698f, -0.28264257311820984f, -0.160549595952034f, 0.03228938207030296f, 0.2178427278995514f, -0.09995706379413605f, -0.42795681953430176f, -0.2553238272666931f, -0.2312171459197998f, -0.041743770241737366f, 0.10947591066360474f, -0.3017493188381195f, -0.2625025510787964f, -0.3263920843601227f, -0.1626509130001068f, -0.03902633860707283f, -0.03389871120452881f, 0.0942409560084343f, -0.2636331021785736f, -0.3094208240509033f, -0.19641762971878052f, -0.16298310458660126f, 0.006943347863852978f, 0.040798723697662354f, -0.22963936626911163f, -0.3021729588508606f, -0.10030392557382584f, -0.10228046774864197f, -0.01686219871044159f, 0.09105579555034637f, 0.01257514487951994f, -0.0482829250395298f, 0.05829932168126106f, 0.12410908192396164f, 0.08548100292682648f, 0.1946437954902649f, 0.04903891682624817f, 0.06456221640110016f, 0.03896712139248848f, -0.062621109187603f, -0.21581457555294037f, -0.1503763496875763f, 0.02864464744925499f, 0.010463304817676544f, 0.02271335944533348f, 0.09125559777021408f, 0.16497540473937988f, -0.08331763744354248f, 0.21865329146385193f, 0.11373696476221085f, 0.1998874992132187f, 0.11033430695533752f, 0.019356418401002884f, 0.00965187232941389f, 0.07604873180389404f, 0.08482712507247925f, 0.09962384402751923f, 0.07942137867212296f, 0.09664091467857361f, 0.17203857004642487f, -0.20461323857307434f, -0.0002811138692777604f, 0.08079857379198074f, 0.05807632952928543f, 0.013697488233447075f, -0.18367038667201996f, -0.036528244614601135f, -0.3590514063835144f, -0.14646035432815552f, -0.20540030300617218f, -0.19552338123321533f, -0.12517321109771729f, -0.11451471596956253f, 0.07026635855436325f, 0.1097600907087326f, 0.18098221719264984f, 0.1666582077741623f, 0.10421234369277954f, 0.09881316125392914f, -0.019116979092359543f, -0.02975553087890148f, 0.07476065307855606f, 0.10381043702363968f, 0.023760801181197166f, -0.10312182456254959f, -0.03735978156328201f, 0.1766098141670227f, 0.0694308653473854f, 0.2826922833919525f, 0.06815837323665619f, -0.7311137914657593f, -0.23866093158721924f, -0.37304985523223877f, -0.31318235397338867f, -0.2606431841850281f, -0.1442572921514511f, -0.16385895013809204f, -0.18465781211853027f, -0.1463046818971634f, -0.3131338357925415f, -0.2933368682861328f, 0.36820554733276367f, 0.0029529090970754623f, 0.08234304934740067f, -0.07631363719701767f, -0.37618792057037354f, -0.3792194724082947f, -0.39142727851867676f, -0.3226184546947479f, -0.3075488209724426f, -0.11167072504758835f, 0.04634302482008934f, -0.09362613409757614f, -0.31707313656806946f, 0.0260164774954319f, -0.07515588402748108f, -0.16093654930591583f, -0.2092091292142868f, -0.2232663631439209f, -0.340140700340271f, -0.4088296592235565f, -0.4221688210964203f, -0.2986043393611908f, -0.10051336139440536f, -0.024898367002606392f, -0.3131482005119324f, -0.560812771320343f, 0.0974624752998352f, -0.4754393696784973f, -0.07536394894123077f, -0.05947251245379448f, -0.10761038213968277f, -0.24909523129463196f, -0.25819873809814453f, -0.13337551057338715f, -0.18201002478599548f, -0.11652549356222153f, -0.09066647291183472f, -0.225834459066391f, -0.35532018542289734f, -0.1439182460308075f, -0.3421908915042877f, -0.3924550712108612f, -0.31130439043045044f, -0.12336722761392593f, -0.22138789296150208f, -0.0024576482828706503f, -0.016278540715575218f, -0.07142911106348038f, -0.24816399812698364f, -0.19618286192417145f, -0.2060449868440628f, -0.13665936887264252f, 0.2293592095375061f, -0.13053038716316223f, -0.38206589221954346f, -0.10732217878103256f, -0.149206280708313f, -0.2737736999988556f, -0.05277180299162865f, 0.04505391791462898f, -0.14274157583713531f, -0.258156955242157f, -0.1733439415693283f, -0.15714401006698608f, -0.15834982693195343f, 0.17996172606945038f, 0.1401444673538208f, -0.059360962361097336f, -0.008850522339344025f, -0.26912030577659607f, -0.1925775557756424f, 0.03239952772855759f, 0.078909732401371f, -0.4520411491394043f, -0.34377768635749817f, -0.14492298662662506f, -0.24694234132766724f, -0.37021028995513916f, -0.02877584844827652f, -0.3032699227333069f, -0.2902166545391083f, -0.16348226368427277f, -0.23267531394958496f, -0.20907367765903473f, 0.11974263936281204f, -0.15896309912204742f, -0.3973623812198639f, -0.13899099826812744f, -0.07930707931518555f, -0.2288537621498108f, -0.30276092886924744f, -0.010635585524141788f, -0.37554335594177246f, -0.22926388680934906f, 0.012261287309229374f, -0.10218964517116547f, -0.045848894864320755f, -0.0719451904296875f, -0.23195776343345642f, -0.017121275886893272f, 0.031327154487371445f, 0.06849627941846848f, 0.12006326764822006f, 0.15412811934947968f, 0.07466704398393631f, 0.2074653059244156f, 0.29132214188575745f, 0.12233596295118332f, 0.08428505808115005f, -0.15358218550682068f, -0.22475199401378632f, -0.02664743922650814f, 0.22063817083835602f, 0.11935348808765411f, 0.1197703406214714f, 0.020863978192210197f, 0.27188876271247864f, -0.11389573663473129f, 0.24030157923698425f, 0.2518196702003479f, 0.23534229397773743f, 0.07834911346435547f, 0.001892078435048461f, 0.00818435475230217f, -0.011336266063153744f, 0.1637754589319229f, 0.10430101305246353f, -0.19526442885398865f, -0.2537209987640381f, 0.052920062094926834f, -0.04229732230305672f, -0.41290193796157837f, -0.23701034486293793f, -0.2757791578769684f, -0.2803276777267456f, -0.4607313573360443f, -0.22451046109199524f, -0.3178103268146515f, -0.23076018691062927f, -0.3265744149684906f, -0.22968420386314392f, -0.21211259067058563f, 0.08688776940107346f, 0.06760995835065842f, 0.01757906936109066f, 0.039514586329460144f, 0.02886025421321392f, 0.028957214206457138f, 0.14424267411231995f, 0.04208109900355339f, -0.04055006429553032f, -0.01572410762310028f, 0.0380735844373703f, 0.08012699335813522f, 0.07224013656377792f, 0.02422109618782997f, 0.06959206610918045f, 0.09208434075117111f, 0.002651945687830448f, 0.06606502830982208f, 0.18670296669006348f, 0.25427237153053284f, 0.1877632439136505f, 0.1010412722826004f, 0.24670614302158356f, 0.19559697806835175f, 0.11465509235858917f, 0.028363434597849846f, 0.07436147332191467f, 0.066806361079216f, 0.12254079431295395f, -0.02599892020225525f, -0.049404311925172806f, 0.24535176157951355f, 0.21323300898075104f, 0.24108238518238068f, 0.4090740382671356f, 0.8047269582748413f, 0.5650743842124939f, 0.1075269877910614f, 0.06628879904747009f, 0.0867823138833046f, 0.0294816754758358f, 0.06112873926758766f, -0.07980114966630936f, -0.08417841047048569f, 0.11632946878671646f, 0.10399628430604935f, 0.18734025955200195f, 0.27185171842575073f, 0.3543225824832916f, 0.24074417352676392f, 0.1355748027563095f, 0.06237037479877472f, 0.07223068177700043f, 0.029499076306819916f, 0.037895116955041885f, -0.033352579921483994f, -0.07153600454330444f, 0.04838470369577408f, 0.07100057601928711f, 0.15262505412101746f, -0.09531290829181671f, -0.17970313131809235f, 0.17506174743175507f, 0.09643100947141647f, 0.06615212559700012f, 0.04882396012544632f, 0.05251355841755867f, 0.05204050615429878f, -0.07394307106733322f, -0.08953152596950531f, -0.03383397310972214f, 0.1475185751914978f, 0.26357144117355347f, -0.11779148131608963f, 0.05382195860147476f, 0.24815194308757782f, 0.10443761199712753f, 0.06405895203351974f, 0.07125411927700043f, 0.07188482582569122f, 0.03678910806775093f, -0.012362268753349781f, 0.019363408908247948f, -0.09263836592435837f, 0.40647709369659424f, 0.33742955327033997f, -0.17183583974838257f, 0.20903658866882324f, 0.2512452006340027f, 0.08692526072263718f, 0.082908034324646f, 0.051111917942762375f, 0.07906191051006317f, 0.009156676940619946f, -0.048522766679525375f, -0.04415107145905495f, 0.07959413528442383f, 0.35741275548934937f, 0.410213828086853f, -0.5463460087776184f, 0.11597608029842377f, 0.1988615244626999f, 0.09142210334539413f, 0.12485568970441818f, 0.020954644307494164f, 0.06542032957077026f, -0.08677569776773453f, -0.08473049849271774f, -0.0005669311503879726f, 0.029995225369930267f, 0.2411460131406784f, 0.41258466243743896f, -0.4799499213695526f, 0.10846120119094849f, 0.06300795823335648f, 0.025007447227835655f, 0.14171159267425537f, 0.07699066400527954f, 0.06278769671916962f, -0.09443502873182297f, 0.02446744218468666f, -0.05453183129429817f, -0.07326264679431915f, 0.15786856412887573f, 0.0809641182422638f, -0.3584171533584595f, -0.03954785689711571f, 0.048491738736629486f, 0.05654032155871391f, 0.03928622975945473f, 0.04112124815583229f, 0.055456243455410004f, 0.19789162278175354f, 0.1862155944108963f, 0.10646598786115646f, 0.0848260447382927f, 0.22906045615673065f, 0.24427001178264618f, -0.03475252538919449f, 0.14519569277763367f, 0.07139693945646286f, -0.012031713500618935f, 0.10896400362253189f, 0.07471286505460739f, 0.021158484742045403f, 0.09130852669477463f, 0.15641391277313232f, 0.1781110167503357f, 0.27124089002609253f, 0.30858588218688965f, 0.24791358411312103f, 0.12274777889251709f, 0.228831484913826f, 0.15091221034526825f, 0.07029500603675842f, 0.04870491847395897f, 0.07588557153940201f, 0.0646481066942215f, -0.021907607093453407f, -0.0162630807608366f, 0.05759997293353081f, -0.11901910603046417f, 0.07808368653059006f, 0.012470532208681107f, 0.08027011156082153f, 0.09157831221818924f, 0.09105173498392105f, 0.024311183020472527f, 0.0655069351196289f, 0.013532520271837711f, 0.022599048912525177f, -0.2969270348548889f, -0.513128936290741f, -0.23635797202587128f, -0.40562325716018677f, 0.2767127752304077f, 0.12190808355808258f, -0.18866218626499176f, -0.07834625244140625f, -0.35692599415779114f, -0.1447257250547409f, -0.5485203266143799f, -0.41224026679992676f, 0.05789840966463089f, -0.7092636227607727f, -0.6943637728691101f, 0.11806026846170425f, 0.4530342221260071f, 0.5270802974700928f, 0.30423980951309204f, 0.16598406434059143f, 0.43970319628715515f, 0.031798724085092545f, -0.26869648694992065f, -0.2029588669538498f, -0.1093207374215126f, 0.15990959107875824f, 0.08524006605148315f, -0.4470536410808563f, -0.09893032908439636f, 0.2197001874446869f, 0.46448907256126404f, 0.4555995464324951f, 0.5117895603179932f, 0.5158157348632812f, 0.3350135385990143f, 0.22421346604824066f, 0.2100922018289566f, 0.07619455456733704f, -0.4583681523799896f, -0.2996569871902466f, -0.059805821627378464f, -0.3350136876106262f, -0.20469757914543152f, -0.0146221574395895f, -0.04830046743154526f, 0.13809961080551147f, -0.04259835183620453f, -0.020570853725075722f, 0.07053936272859573f, 0.05704663321375847f, -0.14208507537841797f, -0.5709761381149292f, -0.29854974150657654f, -0.043282635509967804f, -0.5983277559280396f, -0.37144073843955994f, -0.2849450707435608f, -0.27397504448890686f, -0.18075907230377197f, -0.1343635618686676f, 0.03767762705683708f, -0.07879036664962769f, 0.053603075444698334f, -0.3027009665966034f, -0.35357391834259033f, -0.13185034692287445f, -0.1671934872865677f, -0.3067229092121124f, -0.34699589014053345f, -0.2239709198474884f, -0.24808767437934875f, -0.26757174730300903f, 0.12760093808174133f, 0.23907093703746796f, -0.09909388422966003f, -0.0008191731758415699f, -0.3299858570098877f, 0.21699774265289307f, -0.08141491562128067f, 0.09573893249034882f, -0.3267684280872345f, -0.1936187595129013f, 0.05614457279443741f, -0.1798393577337265f, 0.2608276903629303f, 0.32062047719955444f, 0.08694295585155487f, -0.39796340465545654f, -0.20107054710388184f, -0.1681973934173584f, -0.18024472892284393f, -0.07481095939874649f, -0.3550638258457184f, -0.19595521688461304f, 0.03122110478579998f, 0.10684704035520554f, -0.2126370519399643f, 0.2698574364185333f, 0.32780706882476807f, -0.4625808298587799f, -0.5910444855690002f, -0.3445035517215729f, -0.05116875097155571f, -0.3049566149711609f, -0.49874383211135864f, -0.4997095763683319f, -0.1687316596508026f, -0.19134202599525452f, -0.16324402391910553f, -0.0703018307685852f, 0.12004010379314423f, -0.11109403520822525f, -0.523760974407196f, -0.4768575131893158f, -0.41084524989128113f, -0.2017853856086731f, -0.34268680214881897f, -0.36799919605255127f, 0.06413988769054413f, -0.19390252232551575f, -0.3076971471309662f, -0.3354390859603882f, -0.29343628883361816f, -0.40528610348701477f, -0.2861595153808594f, -0.21609623730182648f, -0.13800504803657532f, -0.017963236197829247f, 0.09333792328834534f, -0.09619449824094772f, 0.29023277759552f, 0.0743856281042099f, 0.13860391080379486f, -0.07373256236314774f, 0.11616678535938263f, -0.2243529111146927f, -0.2877122461795807f, -0.3219181299209595f, 0.0827651396393776f, 0.26886460185050964f, -0.11376916617155075f, 0.1496666520833969f, -0.48975592851638794f, 0.2326316237449646f, 0.2168046087026596f, 0.20765234529972076f, 0.3198923170566559f, 0.29652827978134155f, 0.22962580621242523f, 0.33526501059532166f, 0.26689574122428894f, 0.2636096775531769f, 0.32386061549186707f, -0.18895171582698822f, -0.2788808345794678f, -0.4432777464389801f, -0.2934095561504364f, -0.26876404881477356f, -0.3118474781513214f, 0.09855827689170837f, -0.33222195506095886f, -0.26825809478759766f, -0.12492187321186066f, -0.30237194895744324f, 0.003781528677791357f, -0.20784492790699005f, -0.44814586639404297f, -0.4225299656391144f},
  {-0.034369926899671555f, -0.058089107275009155f, 0.005767167080193758f, 0.370044469833374f, 0.3135398328304291f, 0.31262072920799255f, 0.23201951384544373f, 0.1494702398777008f, 0.39284899830818176f, -0.029442299157381058f, -0.042891792953014374f, 0.13314062356948853f, 0.23898670077323914f, -0.05151069164276123f, 0.10485254973173141f, -0.1474226862192154f, 0.25109589099884033f, 0.2599032521247864f, 0.3267517685890198f, 0.33935603499412537f, 0.20714320242404938f, 0.35074496269226074f, 0.0636858195066452f, 0.07772430777549744f, -0.1297183483839035f, 0.04494168981909752f, 0.04337535798549652f, 0.14041437208652496f, -0.03548549488186836f, -0.06055136397480965f, -0.003701194189488888f, 0.19708791375160217f, 0.2624191641807556f, 0.20982825756072998f, 0.12914849817752838f, 0.13163861632347107f, 0.023722846060991287f, -0.12084274739027023f, -0.2868867516517639f, 0.09700161963701248f, -0.05908719077706337f, -0.14863865077495575f, -0.22275421023368835f, -0.032233644276857376f, 0.11566177755594254f, 0.19860103726387024f, 0.19344301521778107f, 0.03217645734548569f, -0.0015313532203435898f, -0.03532015159726143f, -0.017730148509144783f, -0.37930476665496826f, 0.03366634622216225f, 0.0850391536951065f, -0.1688929796218872f, -0.22015634179115295f, -0.3002571165561676f, -0.03028712049126625f, -0.03342960402369499f, -0.002852707402780652f, 0.10631030052900314f, 0.013863509520888329f, -0.022334149107336998f, -0.09103760868310928f, -0.37861907482147217f, -0.08332342654466629f, 0.0074569107964634895f, -0.2991480529308319f, -0.48772454261779785f, -0.49778124690055847f, -0.4975811541080475f, -0.4400795102119446f, -0.34085819125175476f, -0.10268329828977585f, 0.0515751987695694f, -0.05245824158191681f, -0.2756216824054718f, 0.06633368879556656f, -0.047918133437633514f, -0.31177830696105957f, -0.4181748330593109f, -0.5493742823600769f, -0.42435991764068604f, -0.3079761564731598f, -0.12761333584785461f, -0.19327175617218018f, -0.22217786312103271f, -0.18390677869319916f, -0.22824154794216156f, -0.24330802261829376f, 0.0929509773850441f, 0.03620024025440216f, -0.19312109053134918f, -0.18662473559379578f, -0.18978802859783173f, -0.23171502351760864f, -0.0022019213065505028f, 0.16965389251708984f, 0.01085286121815443f, -0.19546890258789062f, -0.20249776542186737f, -0.1853904128074646f, -0.23958948254585266f, 0.03598305583000183f, 0.17959003150463104f, 0.008958393707871437f, -0.05388500168919563f, -9.393086656928062e-05f, 0.10188203305006027f, 0.17171375453472137f, 0.16550375521183014f, 0.08244644105434418f, -0.06375724077224731f, -0.13995401561260223f, -0.07344383001327515f, -0.0037735241930931807f, 0.09833792597055435f, 0.04253004491329193f, -0.026122432202100754f, -0.011116554029285908f, 0.05840131267905235f, 0.12156210839748383f, 0.23085834085941315f, 0.22179608047008514f, 0.1440640389919281f, 0.11095179617404938f, 0.16763417422771454f, 0.1738390028476715f, 0.1241951584815979f, -0.12091648578643799f, 0.001368907280266285f, 0.05811076611280441f, 0.02312394417822361f, 0.017873607575893402f, 0.10177499055862427f, -0.008747968822717667f, -0.013179194182157516f, -0.008646659553050995f, 0.19941656291484833f, 0.26827865839004517f, 0.26305586099624634f, 0.1349443793296814f, 0.035737473517656326f, 0.11579716950654984f, 0.05352266877889633f, 0.08486109972000122f, 0.020476533100008965f, -0.026769069954752922f, -0.11104506254196167f, -0.019473396241664886f, 0.12475565820932388f, 0.21145445108413696f, 0.21290725469589233f, 0.2150343805551529f, 0.22662420570850372f, 0.08206917345523834f, -0.05488046631217003f, -0.25877445936203003f, -0.2866777777671814f, -0.24941381812095642f, -0.24228130280971527f, -0.15999466180801392f, -0.13823774456977844f, -0.19766125082969666f, -0.14024770259857178f, -0.05149935558438301f, -0.09977386891841888f, -0.050902109593153f, 0.19065575301647186f, 0.09050965309143066f, -0.04295027256011963f, -0.02430928684771061f, 0.04196969419717789f, 0.058828163892030716f, -0.01749500259757042f, 0.006334117613732815f, -0.05208152160048485f, -0.3520750105381012f, -0.17826810479164124f, -0.06509360671043396f, 0.05414135381579399f, -0.0312302615493536f, -0.013440601527690887f, -0.13478393852710724f, -0.12686827778816223f, 0.3189397156238556f, 0.3775983452796936f, 0.2649102509021759f, 0.16960513591766357f, 0.15821360051631927f, -0.014423005282878876f, -0.1491219401359558f, -0.3044293224811554f, -0.361951619386673f, -0.01499047502875328f, -0.05406153202056885f, -0.03531598672270775f, 0.16318362951278687f, 0.11110391467809677f, 0.20601928234100342f, 0.07703180611133575f, 0.07608343660831451f, 0.13764087855815887f, 0.020426591858267784f, -0.10063402354717255f, -0.3097184896469116f, -0.5403372645378113f, -0.2188389003276825f, 0.14481547474861145f, 0.1645556092262268f, 0.06882387399673462f, 0.19020108878612518f, 0.2275223731994629f, 0.12394986301660538f, 0.14735116064548492f, 0.02312517538666725f, -0.1331619769334793f, -0.1941949725151062f, -0.2874375283718109f, -0.3484984040260315f, -0.14874763786792755f, -0.14455464482307434f, 0.0223176721483469f, 0.15503913164138794f, 0.09345123916864395f, 0.1697923243045807f, 0.11640767008066177f, 0.17399246990680695f, 0.01029701717197895f, -0.09399784356355667f, -0.20210948586463928f, -0.14615274965763092f, -0.19343224167823792f, -0.3007003366947174f, -0.2338084876537323f, -0.06770424544811249f, 0.20540966093540192f, 0.09262246638536453f, 0.07942488044500351f, -0.08007622510194778f, -0.10202550888061523f, -0.18046678602695465f, -0.2928706109523773f, -0.16694553196430206f, -0.12595613300800323f, -0.06944789737462997f, 0.07872658222913742f, -0.06503806263208389f, -0.18613506853580475f, -0.13351938128471375f, -0.05860833078622818f, -0.06463337689638138f, -0.005107209086418152f, -0.044861435890197754f, -0.22473780810832977f, -0.12883001565933228f, -0.12887004017829895f, -0.017537377774715424f, 0.3214241862297058f, 0.5748490691184998f, -0.16792304813861847f, -0.18053989112377167f, -0.0021747909486293793f, -0.09487077593803406f, -0.02565869130194187f, 0.07715001702308655f, 0.11254651844501495f, -0.02337649092078209f, -0.037725746631622314f, 0.08544669300317764f, 0.3354875445365906f, 0.5724911689758301f, 0.8081982731819153f, 0.13572289049625397f, 0.14903563261032104f, 0.06477101892232895f, -0.03461574390530586f, 0.12193317711353302f, 0.227060005068779f, 0.20428861677646637f, 0.09520451724529266f, 0.10245381295681f, 0.23472581803798676f, 0.27508631348609924f, 0.3114589750766754f, 0.7051514387130737f, -0.19993436336517334f, 0.07796291261911392f, 0.017101971432566643f, 0.09693405777215958f, 0.1388232558965683f, 0.12975621223449707f, 0.18496499955654144f, 0.1729646921157837f, 0.2605223059654236f, 0.30441465973854065f, 0.3598584830760956f, 0.5203104615211487f, 0.5723133087158203f, 0.06031699478626251f, 0.16129012405872345f, -0.0004466299433261156f, 0.008549656718969345f, 0.017658477649092674f, -0.03467654064297676f, 0.07387618720531464f, 0.14200139045715332f, 0.2069225311279297f, 0.3608367443084717f, 0.2791895270347595f, 0.3317616879940033f, 0.22180399298667908f, -0.07814738899469376f, 0.04778166487812996f, -0.025440888479351997f, 0.09755741059780121f, 0.08032520115375519f, 0.03295902907848358f, -0.1265476793050766f, -0.16635072231292725f, 0.09758251905441284f, 0.161268949508667f, 0.1267162710428238f, 0.06780705600976944f, -0.17196248471736908f, -0.7052266597747803f, -0.7365275025367737f, -0.5379144549369812f, -0.4466593563556671f, -0.44407787919044495f, -0.13826678693294525f, -0.04050131142139435f, -0.04204172641038895f, -0.0709206610918045f, -0.16027086973190308f, 0.006430712062865496f, 0.23481693863868713f, 0.17624861001968384f, 0.052191950380802155f, 0.07082489877939224f, 0.09478051960468292f, 0.1344604194164276f, 0.11280114948749542f, 0.12880069017410278f, 0.007408939301967621f, 0.17979422211647034f, 0.06735268235206604f, 0.05809023231267929f, 0.08190079778432846f, 0.12704621255397797f, 0.031991586089134216f, 0.08408203721046448f, 0.061184417456388474f, 0.10425056517124176f, 0.10553692281246185f, 0.09635160863399506f, 0.01355782151222229f, -0.14192631840705872f, -0.10676813870668411f, -0.3286781311035156f, -0.13541361689567566f, 0.015187876299023628f, 0.09789589047431946f, 0.08489000052213669f, 0.07263141870498657f, -0.04381019249558449f, -0.05555369704961777f, 0.08444711565971375f, 0.04237378016114235f, -0.21705254912376404f, 0.004158858675509691f, -0.187307670712471f, -0.5281643271446228f, -0.27355849742889404f, -0.005182879976928234f, 0.16602768003940582f, 0.10016705095767975f, 0.08724362403154373f, -0.03764621540904045f, -0.006561474408954382f, 0.15448309481143951f, 0.03648311644792557f, -0.07251710444688797f, 0.03808875009417534f, 0.12445209175348282f, 0.04825963079929352f, 0.18869411945343018f, 0.11375369131565094f, 0.13609130680561066f, 0.06278206408023834f, 0.028017830103635788f, -0.06951326131820679f, -0.020233046263456345f, 0.013149707578122616f, -0.1266314685344696f, -0.18008702993392944f, 0.22501055896282196f, 0.4363180994987488f, 0.33707383275032043f, 0.3545782268047333f, 0.2371605783700943f, 0.11672458797693253f, 0.0785653293132782f, 0.027037113904953003f, -0.11136189848184586f, -0.289404034614563f, -0.21449527144432068f, -0.3585590720176697f, -0.08478483557701111f, 0.25879207253456116f, 0.4854375123977661f, 0.6069446802139282f, 0.4363926351070404f, 0.2642604112625122f, 0.27079325914382935f, 0.08626088500022888f, 0.05798926204442978f, -0.15415030717849731f, -0.24494946002960205f, -0.30423420667648315f, -0.316842645406723f, -0.1785535365343094f, -0.053525857627391815f, 0.20553229749202728f, 0.2801423966884613f, 0.3012073040008545f, 0.111888587474823f, 0.14638651907444f, 0.01713533140718937f, 0.05463715270161629f, 0.058929651975631714f, -0.0940474197268486f, -0.10025431960821152f, -0.08213391155004501f, -0.14037486910820007f, -0.19439874589443207f, -0.32529738545417786f, -0.24107737839221954f, -0.08887721598148346f, -0.21476246416568756f, -0.008010526187717915f, -0.03475833311676979f, 0.0894913300871849f, 0.0487220361828804f, 0.09029269218444824f, 0.21883904933929443f, 0.1366501748561859f, -0.04212712496519089f, -0.276256263256073f, -0.23777754604816437f, -0.35361865162849426f, -0.4048130214214325f, -0.18140116333961487f, -0.07079794257879257f, 0.018753094598650932f, 0.03955276682972908f, 0.10805675387382507f, 0.15960444509983063f, 0.21556714177131653f, 0.21297192573547363f, -0.007586845196783543f, -0.4328847825527191f, -0.2056213766336441f, -0.5291157960891724f, -0.09260191023349762f, -0.06019006296992302f, -0.046245329082012177f, 0.014874432235956192f, 0.07972271740436554f, 0.1149187684059143f, 0.05748479440808296f, 0.15044189989566803f, 0.14468435943126678f, -0.046957094222307205f, -0.1963777393102646f, -0.09774654358625412f, 0.0728655606508255f, -0.02775600180029869f, 0.007609081920236349f, 0.0011435725027695298f, 0.054575689136981964f, 0.024523422122001648f, 0.05622371658682823f, 0.06094418093562126f, 0.039836205542087555f, -0.07361365854740143f, -0.16773325204849243f, -0.22087116539478302f, -0.060890886932611465f, 0.046815063804388046f, -0.07244530320167542f, -0.02285144291818142f, 0.022929685190320015f, 0.042138274759054184f, 0.09596054255962372f, 0.016745438799262047f, -0.007844422943890095f, -0.03430706262588501f, -0.011923674494028091f, -0.038518618792295456f, -0.05631360039114952f, -0.12026991695165634f, -0.06731194257736206f, 0.04942960664629936f, 0.03664565831422806f, 0.09366660565137863f, 0.05131103843450546f, -0.13386303186416626f, -0.013631222769618034f, -0.28454574942588806f, 0.14675822854042053f, 0.13185325264930725f, -0.06898285448551178f, -0.3699011206626892f, -0.06772316247224808f, -0.061529532074928284f, -0.17693215608596802f, -0.31211474537849426f, -0.22166021168231964f, -0.0006569336983375251f, -0.15306456387043f, -0.24696415662765503f, 0.1426951289176941f, 0.19585959613323212f, -0.07125955820083618f, 0.13879799842834473f, -0.007837928831577301f, -0.10879935324192047f, -0.3586367964744568f, -0.4895155131816864f, -0.41061827540397644f, -0.05925258249044418f, -0.6797524094581604f, 0.04515375941991806f, -0.20603260397911072f, -0.05147819221019745f, -0.14079615473747253f, -0.0694604367017746f, -0.2087453007698059f, -0.11573708057403564f, -0.15094371140003204f, -0.33310920000076294f, -0.13941124081611633f, -0.14739513397216797f, 0.03542361408472061f, -0.2621113061904907f, 0.024511096999049187f, -0.09292566031217575f, 0.007860631681978703f, 0.02791639417409897f, -0.053611427545547485f, -0.06602737307548523f, -0.11110436171293259f, 0.018175939098000526f, -0.10947161912918091f, 0.11256371438503265f, 1.0467221727594733e-05f, 0.09825464338064194f, -0.374217689037323f, -0.3637356758117676f, -0.16584919393062592f, -0.05075652897357941f, -0.059060756117105484f, -0.1474185287952423f, -0.24781346321105957f, -0.18795537948608398f, 0.17089173197746277f, 0.1294223517179489f, 0.1768415868282318f, 0.2864953279495239f, 0.21877779066562653f, -0.2558092772960663f, -0.37156209349632263f, -0.2852220833301544f, -0.5922792553901672f, -0.5141909718513489f, -0.696943461894989f, -0.48413798213005066f, -0.16802401840686798f, 0.05719906836748123f, 0.28277653455734253f, 0.2809527814388275f, 0.16922324895858765f, 0.14054690301418304f, 0.17611314356327057f, -0.30827635526657104f, -0.630455732345581f, -0.6006864309310913f, -0.7315499782562256f, -0.7101492285728455f, -0.3899081349372864f, -0.23221902549266815f, 0.14292237162590027f, 0.12021619081497192f, 0.24315805733203888f, 0.12602750957012177f, -0.07906980812549591f, -0.0891554206609726f, -0.009828910231590271f, -0.07055091112852097f, -0.07926236093044281f, -0.14251387119293213f, -0.14631147682666779f, -0.006045293528586626f, -0.04599630832672119f, 0.12707164883613586f, 0.014777584932744503f, 0.03275575116276741f, -0.3427923321723938f, -0.3475358784198761f, -0.2743859887123108f, 0.2969245910644531f, 0.03352486342191696f, 0.20857635140419006f, 0.23497720062732697f, 0.44523870944976807f, 0.3309909999370575f, 0.17918112874031067f, 0.28374364972114563f, -0.16959786415100098f, -0.2866784334182739f, -0.48583120107650757f, -0.26235586404800415f, -0.2629254460334778f, 0.1058434471487999f, 0.13036662340164185f, 0.2706923186779022f, 0.17710813879966736f, 0.2862373888492584f, 0.2871215045452118f, 0.15116003155708313f, -0.07775174826383591f, -0.24026355147361755f, -0.28772425651550293f, -0.1717124879360199f, -0.19206631183624268f, -0.06657402217388153f, 0.13983610272407532f, 0.22960272431373596f, 0.197042316198349f, 0.18001814186573029f, 0.15173238515853882f, -0.028133580461144447f, -0.20867697894573212f, -0.048478808254003525f, -0.04282461851835251f, -0.033550940454006195f, 0.02044486068189144f, -0.061538662761449814f, 0.011816572397947311f, -0.23840543627738953f, -0.02155030332505703f, -0.09280399233102798f, -0.11751341074705124f, -0.2439875602722168f, -0.3825947046279907f, -0.4388073682785034f, -0.27846598625183105f, -0.22529375553131104f, 0.03297935426235199f, -0.06541139632463455f, -0.09147866070270538f, -0.0033285547979176044f, -0.4734363257884979f, -0.7055249810218811f, -0.3285723030567169f, -1.123610496520996f, -0.7699683904647827f, -0.9771878719329834f, -0.7076918482780457f, -1.0474790334701538f, -0.5472453236579895f, -0.4076179265975952f, -0.2917456030845642f, -0.30880460143089294f, 0.30380553007125854f},
  {0.08618967235088348f, 0.09513038396835327f, 0.04733703285455704f, -0.3375459909439087f, 0.08387932181358337f, 0.22309592366218567f, 0.2900930345058441f, 0.009493842720985413f, -0.27378204464912415f, -0.3737322688102722f, -0.2757274806499481f, 0.03165241330862045f, 0.07113979011774063f, 0.04131479933857918f, 0.01101310271769762f, 0.1162036657333374f, 0.21990655362606049f, 0.19415079057216644f, 0.06854964792728424f, 0.17161548137664795f, 0.28261715173721313f, 0.10863737016916275f, 0.19014348089694977f, 0.020562786608934402f, -0.1342790275812149f, -0.17540860176086426f, 0.06527778506278992f, -0.01619619131088257f, -0.04086993634700775f, 0.14227212965488434f, 0.0755864679813385f, 0.14658695459365845f, 0.20684702694416046f, 0.14958061277866364f, 0.1775107979774475f, -0.012447928078472614f, 0.0430353544652462f, 0.04763466864824295f, -0.2325979769229889f, 0.07725666463375092f, 0.060921795666217804f, 0.04669526219367981f, -0.048984743654727936f, -0.08202991634607315f, 0.024149466305971146f, -0.03761265054345131f, 0.06288675963878632f, -0.03529669716954231f, 0.004723607562482357f, -0.047600917518138885f, -0.10243745893239975f, -0.04912237823009491f, 0.09684950858354568f, 0.15999434888362885f, 0.13356494903564453f, -0.17222470045089722f, -0.377420574426651f, -0.524971604347229f, -0.4073445498943329f, -0.11440564692020416f, 0.0933731347322464f, 0.05805857852101326f, -0.04862026870250702f, 0.008699784055352211f, -0.47925084829330444f, 0.03169333189725876f, 0.027138132601976395f, -0.2325040102005005f, -0.5167502760887146f, -0.6151595115661621f, -0.539044201374054f, -0.24942822754383087f, 0.17094534635543823f, 0.07882483303546906f, 0.008909477852284908f, -0.06413057446479797f, -0.25154098868370056f, -0.35522201657295227f, -0.023598579689860344f, 0.013933798298239708f, -0.21373865008354187f, -0.4063575565814972f, -0.2978282868862152f, -0.19826944172382355f, 0.003909522667527199f, 0.17674949765205383f, 0.1088704913854599f, 0.10060371458530426f, -0.1811104714870453f, -0.4525529444217682f, -0.18340615928173065f, 0.2284385859966278f, 0.11051888018846512f, 0.10987690836191177f, -0.099299855530262f, -0.08650590479373932f, -0.04680827632546425f, 0.10043752193450928f, 0.1926293969154358f, 0.13436810672283173f, 0.07852980494499207f, 0.07963810116052628f, -0.06068676710128784f, -0.009455117397010326f, 0.09165650606155396f, 0.2262963056564331f, 0.1767505705356598f, 0.0491672083735466f, 0.0086286049336195f, -0.2682522237300873f, -0.053459204733371735f, 0.021199630573391914f, 0.14053227007389069f, 0.25493335723876953f, 0.08630619943141937f, -0.09657538682222366f, -0.1476563960313797f, 0.17132657766342163f, 0.16964006423950195f, 0.24323499202728271f, 0.10780440270900726f, -0.03551565855741501f, -0.21549437940120697f, -0.12681598961353302f, 0.11937244981527328f, 0.1123327910900116f, 0.17947855591773987f, 0.11433862149715424f, -0.06756876409053802f, -0.11986615508794785f, 0.12236630916595459f, 0.23062466084957123f, 0.16932736337184906f, 0.10301899909973145f, 0.07940001040697098f, 0.0006851740181446075f, -0.05436709150671959f, 0.02425159513950348f, 0.038617540150880814f, 0.029473675414919853f, -0.06777601689100266f, -0.25541651248931885f, -0.2664378583431244f, 0.1796352118253708f, 0.10760665684938431f, 0.1647731363773346f, 0.15442003309726715f, 0.11430581659078598f, 0.052710503339767456f, -0.004921265412122011f, -0.013709139078855515f, -0.04015330970287323f, -0.0884350836277008f, -0.1495850831270218f, -0.1849343478679657f, -0.22251130640506744f, 0.1610523760318756f, 0.03349388390779495f, 0.17007796466350555f, 0.1302052140235901f, 0.1697368621826172f, 0.1614418625831604f, 0.1438654512166977f, 0.061380535364151f, -0.022556088864803314f, -0.20121224224567413f, -0.08149361610412598f, -0.14239007234573364f, -0.06273456662893295f, 0.0917384922504425f, 0.01081082783639431f, -0.006552343722432852f, -0.06537900120019913f, -0.07319296896457672f, 0.01133880764245987f, -0.12757453322410583f, -0.3011532425880432f, -0.2820400893688202f, -0.19556684792041779f, -0.17734389007091522f, -0.04331611841917038f, -0.08805132657289505f, -0.00017784396186470985f, 0.08392253518104553f, 0.05052350461483002f, 0.07290731370449066f, 0.20028658211231232f, 0.2600310742855072f, 0.3243196904659271f, 0.020870544016361237f, -0.07805352658033371f, -0.09329509735107422f, -0.11139535903930664f, -0.3003297448158264f, -0.32689812779426575f, 0.1319342404603958f, 0.15619878470897675f, 0.2409108281135559f, 0.32322216033935547f, 0.34859052300453186f, 0.2932886481285095f, 0.20027320086956024f, 0.02185446210205555f, -0.06745872646570206f, -0.15304960310459137f, -0.2985517978668213f, -0.3918178081512451f, -0.08100107312202454f, -0.030827131122350693f, 0.22422949969768524f, 0.22479574382305145f, 0.1852508932352066f, 0.2449726015329361f, 0.3399926722049713f, 0.23439301550388336f, 0.13000161945819855f, -0.049844857305288315f, -0.21058127284049988f, -0.38309329748153687f, -0.3872790038585663f, -0.37495774030685425f, -0.08455321937799454f, 0.2021392285823822f, 0.14375008642673492f, 0.18678011000156403f, 0.3195640444755554f, 0.20634672045707703f, 0.29530593752861023f, 0.24699918925762177f, 0.08310780674219131f, -0.028429435566067696f, -0.08212736248970032f, -0.5340366959571838f, -0.6233701109886169f, 0.12181240320205688f, 0.2334209680557251f, 0.15679126977920532f, 0.07258010655641556f, 0.07206570357084274f, 0.20671862363815308f, 0.2762793004512787f, 0.302347868680954f, 0.24604518711566925f, 0.1311642974615097f, 0.03777063637971878f, -0.2967633903026581f, -0.4806191921234131f, -0.1294325441122055f, 0.032320138067007065f, -0.19956275820732117f, -0.11566675454378128f, 0.10297702252864838f, 0.15137961506843567f, 0.2573360502719879f, 0.34808045625686646f, 0.2800542116165161f, 0.050348713994026184f, -0.38618093729019165f, -0.37996935844421387f, -0.5830890536308289f, -0.06420174241065979f, -0.10788654536008835f, -0.30420762300491333f, -0.08115793764591217f, -0.06235342472791672f, 0.09991636872291565f, 0.2874952256679535f, 0.16791366040706635f, -0.014829847030341625f, -0.08979976177215576f, -0.28684189915657043f, -0.3340093493461609f, -0.49762386083602905f, 0.2888846695423126f, 0.03160033002495766f, -0.1909705549478531f, -0.1597823202610016f, -0.18046578764915466f, 0.10854361951351166f, 0.11569171398878098f, -0.024699997156858444f, 0.040907297283411026f, -0.1371363401412964f, -0.13371583819389343f, -0.2790757715702057f, -0.7759863138198853f, 0.14226913452148438f, 0.16534969210624695f, 0.10065458714962006f, -0.08058016002178192f, -0.059024378657341f, -0.0929715558886528f, 0.07749605923891068f, 0.1647316813468933f, 0.057476021349430084f, 0.0027772008907049894f, -0.17105183005332947f, -0.4872218370437622f, -0.5758455395698547f, 0.056370675563812256f, 0.0713280737400055f, 0.07783054560422897f, 0.04649024456739426f, 0.04753997176885605f, 0.06333231925964355f, 0.18974173069000244f, 0.14706464111804962f, 0.05629177764058113f, -0.026690810918807983f, -0.24973927438259125f, -0.41161593794822693f, -0.3724934458732605f, 0.2984260618686676f, 0.05069465935230255f, 0.07317931205034256f, 0.0260893814265728f, 0.1085381805896759f, 0.10044001787900925f, 0.19270630180835724f, 0.11280356347560883f, -0.00665064062923193f, -0.0603199228644371f, -0.2078385055065155f, -0.20879629254341125f, 0.07222072780132294f, 0.2291148602962494f, 0.18708647787570953f, 0.21661929786205292f, 0.272443562746048f, 0.3916703462600708f, 0.47248607873916626f, 0.3735668957233429f, 0.17181065678596497f, 0.13307474553585052f, 0.20476198196411133f, -0.20002828538417816f, -0.3206266462802887f, -0.10160708427429199f, 0.0014278830494731665f, -0.010838571935892105f, 0.012624051421880722f, -0.04512010142207146f, 0.003038128139451146f, 0.015760788694024086f, 0.014782756567001343f, -0.011723840609192848f, -0.0006608495023101568f, -0.03183077648282051f, -0.0019543322268873453f, -0.037076786160469055f, 0.012966470792889595f, 0.030491499230265617f, 0.020188260823488235f, 0.057979896664619446f, -0.018793566152453423f, 0.0626574382185936f, 0.06042613089084625f, 0.2762799859046936f, 0.11132330447435379f, -0.032791245728731155f, -0.12840677797794342f, -0.04097934812307358f, 0.011635247617959976f, -0.03813891112804413f, -0.011446826159954071f, -0.010831089690327644f, 0.009285138919949532f, -0.05271252244710922f, -0.12397456914186478f, -0.10475108027458191f, -0.16780045628547668f, -0.27693602442741394f, -0.06794524937868118f, -0.0174674391746521f, 0.024271955713629723f, -0.001186162931844592f, 0.035780251026153564f, -0.06596733629703522f, -0.0075074173510074615f, -0.1010947898030281f, -0.03754463791847229f, -0.2139778882265091f, -0.264377623796463f, -0.08537846058607101f, -0.07990186661481857f, 0.1684013158082962f, 0.1913839429616928f, 0.2830559015274048f, 0.03339710831642151f, 0.02507905475795269f, 0.07453396916389465f, 0.05232385918498039f, -0.12819433212280273f, -0.17819906771183014f, -0.2835521996021271f, -0.18150480091571808f, -0.14133264124393463f, -0.14443367719650269f, -0.033596720546483994f, 0.20403945446014404f, 0.20563460886478424f, 0.018223434686660767f, 0.013964121229946613f, 0.01816093921661377f, -0.045192915946245193f, -0.10795074701309204f, 0.06350645422935486f, 0.10460534691810608f, 0.10763958096504211f, -0.17817655205726624f, -0.417298287153244f, -0.3256799280643463f, -0.25032129883766174f, 0.0668276846408844f, 0.06460545212030411f, 0.02139122597873211f, -0.04569762572646141f, -0.09981893748044968f, -0.13856981694698334f, 0.20833615958690643f, 0.3207581639289856f, 0.3892764151096344f, -0.05067799985408783f, -0.4338234066963196f, -0.34430578351020813f, -0.20895633101463318f, -0.023752808570861816f, 0.04719982668757439f, 0.0059768278151750565f, 0.04926730692386627f, -0.0670536532998085f, -0.2615217864513397f, 0.05938321352005005f, 0.227141335606575f, 0.3296244442462921f, 0.06096694990992546f, -0.0577620267868042f, 0.1286976933479309f, -0.10059192031621933f, 0.10784034430980682f, 0.03297391161322594f, 0.03155303746461868f, 0.13990643620491028f, -0.004861446097493172f, -0.20596876740455627f, -0.3128744065761566f, -0.12186425179243088f, 0.014082569628953934f, 0.03375491872429848f, 0.05614560469985008f, 0.10661152750253677f, 0.07019910216331482f, 0.0919429361820221f, 0.01893257163465023f, -0.014379131607711315f, 0.023241963237524033f, 0.03957988694310188f, -0.13011914491653442f, -0.12413180619478226f, -0.3851854205131531f, -0.288746178150177f, 0.0166779812425375f, 0.030291957780718803f, 0.1578245759010315f, 0.01903713494539261f, 0.05549187958240509f, 0.03584340587258339f, -0.0038442793302237988f, 0.03652739152312279f, 0.007790315430611372f, -0.13079792261123657f, -0.1890874207019806f, -0.21354010701179504f, -0.4445814788341522f, -0.19553729891777039f, 0.09132842719554901f, 0.027174971997737885f, -0.03555645793676376f, -0.030824434012174606f, 0.04741416871547699f, 0.014785811305046082f, -0.002030907431617379f, 0.05424180254340172f, -0.10000412911176682f, -0.08219509571790695f, -0.03167771175503731f, -0.08762189000844955f, -0.1604878008365631f, -0.12380926311016083f, -0.07501612603664398f, 0.0431702695786953f, -0.00625565554946661f, 0.03518644720315933f, 0.013049298897385597f, -0.0545848086476326f, 0.050188273191452026f, 0.06898938119411469f, 0.13878335058689117f, 0.06298737227916718f, 0.14808905124664307f, 0.018397487699985504f, 0.08293003588914871f, 0.061365243047475815f, -0.022637711837887764f, -0.056663304567337036f, -0.0240915697067976f, -0.012721681967377663f, 0.0049396054819226265f, -0.05487840622663498f, -0.13251185417175293f, -0.4897100031375885f, -0.17464579641819f, 0.10447030514478683f, 0.1739833801984787f, -0.13717614114284515f, -0.38827237486839294f, -0.42185530066490173f, -0.6080958247184753f, -0.8595055341720581f, -0.4667746424674988f, 0.08870232850313187f, -0.007635076064616442f, 0.2588495910167694f, -0.006147486623376608f, 0.4115970730781555f, 0.03282926604151726f, 0.1228826493024826f, -0.21592986583709717f, -0.4060184359550476f, -0.39529749751091003f, -0.4131595492362976f, -0.3514217436313629f, -1.1494038105010986f, 0.09504006057977676f, -0.027363115921616554f, 0.07933145761489868f, -0.04947957769036293f, -0.002844907809048891f, 0.05406471714377403f, 0.04006199166178703f, -0.07906648516654968f, -0.01860385201871395f, 0.024283306673169136f, -0.13399510085582733f, -0.16888824105262756f, -0.04549180716276169f, 0.07832037657499313f, -0.00539380731061101f, 0.07115868479013443f, -0.09250915050506592f, -0.15856294333934784f, -0.29909878969192505f, -0.10855039954185486f, 0.2362310141324997f, 0.36960726976394653f, 0.2176809310913086f, 0.1444639265537262f, -0.13329046964645386f, -0.1769074946641922f, 0.14782382547855377f, 0.0011257777223363519f, 0.024559665471315384f, -0.3412152826786041f, -0.3658730685710907f, -0.34882697463035583f, -0.15259236097335815f, 0.05323011055588722f, 0.4020434617996216f, 0.19730806350708008f, 0.0936243087053299f, 0.10706320405006409f, -0.6864617466926575f, 0.07580144703388214f, -0.2065000981092453f, -0.2407492995262146f, -0.13720373809337616f, -0.0708821639418602f, -0.2722925543785095f, -0.4004214406013489f, -0.16446077823638916f, -0.07125931233167648f, -0.1281064748764038f, -0.16581641137599945f, -0.19525885581970215f, -0.9231624603271484f, -0.1819155067205429f, -0.07629966735839844f, -0.0683845803141594f, 0.13674087822437286f, 0.1788901686668396f, 0.15606604516506195f, -0.43176785111427307f, -0.3417467176914215f, -0.34735241532325745f, -0.1696387678384781f, -0.40355023741722107f, -0.7745816707611084f, -0.4966035485267639f, -0.0033892588689923286f, -0.07621973007917404f, -0.36181461811065674f, -0.14969956874847412f, -0.08127376437187195f, -0.4109894633293152f, -0.5837615132331848f, -0.08770041912794113f, -0.2058732807636261f, -0.16590723395347595f, -0.0829101949930191f, -0.20586653053760529f, -0.023917146027088165f, 0.20767585933208466f, -0.142645925283432f, -0.3787078261375427f, -0.43310847878456116f, -0.7036815285682678f, -0.7517317533493042f, -0.5855893492698669f, -0.2697914242744446f, -0.022217243909835815f, 0.10509102046489716f, 0.061926890164613724f, 0.16859787702560425f, -0.13482138514518738f, 0.11261788010597229f, 0.031545139849185944f, -0.0615592822432518f, -0.141996830701828f, -0.31769686937332153f, -0.5962884426116943f, -0.5367087125778198f, -0.12725193798542023f, 0.19285260140895844f, 0.0431409515440464f, 0.12976539134979248f, 0.08472733199596405f, -0.2365165650844574f, 0.0612318255007267f, -0.10738510638475418f, -0.06990126520395279f, -0.1759963035583496f, -0.17784914374351501f, -0.31079015135765076f, -0.29912450909614563f, 0.18297190964221954f, 0.22783952951431274f, 0.008660838939249516f, 0.1262170523405075f, -0.278764933347702f, -0.2898358702659607f, 0.10366097837686539f, 0.01679297909140587f, -0.07947288453578949f, -0.0645764023065567f, -0.1644071340560913f, -0.3498592972755432f, -0.215606227517128f, 0.16766110062599182f, -0.03724886104464531f, 0.06117898225784302f, -0.07675226032733917f, -0.2264259159564972f, -0.31877613067626953f, -0.11253175884485245f, -0.15080711245536804f, 0.034913722425699234f, -0.15950143337249756f, -0.3644023835659027f, -0.07375234365463257f, -0.2567918300628662f, -0.229280486702919f, 0.04802057147026062f, -0.40016791224479675f, -0.13015204668045044f, -0.06220525503158569f, -0.38241907954216003f},
  {0.11022432893514633f, 0.1360359638929367f, -0.07044269144535065f, -0.21286357939243317f, -0.5059574842453003f, -0.5462406277656555f, -0.578849196434021f, 0.09936301410198212f, -0.32858791947364807f, -0.18603481352329254f, -0.05557584762573242f, 0.007596789393573999f, 0.14846813678741455f, 0.13821494579315186f, 0.04753535985946655f, -0.23314529657363892f, -0.1927005499601364f, -0.3669288456439972f, -0.6459135413169861f, -0.3041613698005676f, -0.2641270160675049f, -0.03533925488591194f, -0.22979357838630676f, 0.1305113583803177f, 0.28017154335975647f, 0.0020180551800876856f, 0.09401122480630875f, 0.1063014417886734f, 0.12129465490579605f, 0.037045374512672424f, 0.14986112713813782f, -0.08474977314472198f, -0.26974865794181824f, -0.2639778256416321f, -0.2240086942911148f, -0.0924311950802803f, -0.10434211045503616f, 0.1055690199136734f, 0.13052432239055634f, 0.07369399070739746f, 0.12679924070835114f, 0.2601337730884552f, 0.12753331661224365f, 0.06647077202796936f, -0.08685619384050369f, -0.26771295070648193f, -0.30626070499420166f, -0.23817871510982513f, -0.1666145920753479f, -0.009164012037217617f, 0.021242158487439156f, 0.30576810240745544f, -0.07677612453699112f, 0.09322211146354675f, 0.20160631835460663f, 0.007713715545833111f, 0.0482306107878685f, -0.06785030663013458f, -0.19423149526119232f, -0.2222844362258911f, -0.12002410739660263f, -0.08334901928901672f, -0.05048605054616928f, -0.02890920639038086f, -0.026660757139325142f, -0.20019902288913727f, 0.11639241129159927f, 0.14191307127475739f, 0.17716868221759796f, 0.1816268116235733f, 0.2460070252418518f, 0.06325086206197739f, -0.15183395147323608f, 0.14496628940105438f, 0.08268432319164276f, -0.0173171516507864f, -0.06652539223432541f, -0.1836865097284317f, -0.1572757512331009f, 0.07182732969522476f, 0.10860483348369598f, 0.1866525411605835f, 0.24869292974472046f, 0.25545230507850647f, 0.10890266299247742f, -0.005594044458121061f, 0.2766474485397339f, 0.22103364765644073f, 0.08712323009967804f, -0.14295679330825806f, -0.1740989238023758f, -0.12013939023017883f, -0.03209340572357178f, 0.002255774801596999f, 0.10093007981777191f, 0.22610758244991302f, 0.14127086102962494f, 0.04091940075159073f, -0.06566569209098816f, 0.13973213732242584f, 0.17572127282619476f, 0.18920552730560303f, -0.02407359518110752f, -0.20487220585346222f, -0.16062524914741516f, -0.10425347089767456f, -0.07796559482812881f, 0.05653460696339607f, 0.09983375668525696f, 0.005241312552243471f, 0.017962437123060226f, -0.01834876276552677f, 0.1103561595082283f, 0.05660342797636986f, 0.06213251128792763f, -0.04626292735338211f, -0.21982882916927338f, -0.11210957169532776f, -0.10047751665115356f, -0.22041133046150208f, -0.19600483775138855f, -0.15409868955612183f, -0.12055641412734985f, -0.06827552616596222f, 0.011444485746324062f, 0.03281151503324509f, -0.040004778653383255f, 0.04171553999185562f, -0.21546156704425812f, -0.3478446900844574f, -0.15787440538406372f, -0.1999841034412384f, -0.2678777575492859f, -0.41136613488197327f, -0.3381437063217163f, -0.309607595205307f, -0.16188253462314606f, -0.10643670707941055f, 0.034812022000551224f, 0.06439462304115295f, 0.023083966225385666f, 0.035153187811374664f, -0.1424187570810318f, 0.030225029215216637f, -0.15598630905151367f, -0.16281336545944214f, -0.005912614054977894f, 0.02385479398071766f, -0.06554193049669266f, -0.03363889455795288f, 0.011842970736324787f, 0.04871848598122597f, 0.09329484403133392f, 0.05150957405567169f, 0.06103958189487457f, 0.01279467437416315f, 0.11537978053092957f, 0.1269805133342743f, 0.008602352812886238f, 0.0039051505737006664f, -0.03231034800410271f, 0.004245535936206579f, -0.11153452843427658f, -0.06104973703622818f, -0.06268971413373947f, -0.1205083504319191f, -0.22873729467391968f, -0.016191720962524414f, 0.12555380165576935f, -0.34293481707572937f, -0.5036483407020569f, -0.45598459243774414f, -0.38471564650535583f, -0.5526889562606812f, -0.6638516187667847f, -0.2734730541706085f, -0.40018022060394287f, -0.46182605624198914f, -0.4034973978996277f, -0.5263034701347351f, -0.5800551772117615f, -0.6060814261436462f, -0.5110238194465637f, -0.5664791464805603f, -0.15652307868003845f, -0.2563987970352173f, -0.5100576281547546f, -0.55291748046875f, -0.30852609872817993f, -0.32802584767341614f, -0.33523955941200256f, -0.13198044896125793f, 0.33729010820388794f, 0.33478182554244995f, -0.11792819201946259f, -0.713024377822876f, -0.044944848865270615f, -0.11878784745931625f, -0.03357597067952156f, -0.226930633187294f, -0.46314114332199097f, -0.46823930740356445f, -0.5504666566848755f, -0.19094930589199066f, 0.026673831045627594f, 0.3599443733692169f, 0.5324729681015015f, -0.022790655493736267f, -0.49782389402389526f, -0.05919123440980911f, -0.13943597674369812f, -0.2213139832019806f, -0.27225977182388306f, -0.4454163908958435f, -0.5469238758087158f, -0.5396901369094849f, -0.2963414490222931f, -0.07728210091590881f, 0.16370464861392975f, 0.34271112084388733f, 0.22762538492679596f, -0.6537486910820007f, -0.09582024812698364f, -0.18724481761455536f, -0.1747022569179535f, -0.2361120730638504f, -0.26323360204696655f, -0.3119165301322937f, -0.4098284840583801f, -0.22964079678058624f, -0.018148763105273247f, 0.08263780921697617f, 0.0026693500112742186f, -0.15796972811222076f, -0.09021523594856262f, -0.1818903684616089f, -0.17242678999900818f, -0.03526967018842697f, 0.09400393813848495f, 0.1586207151412964f, -0.2841229736804962f, -0.2281477302312851f, -0.05892690271139145f, 0.03864021226763725f, 0.01686997152864933f, -0.17676301300525665f, -0.4210197627544403f, -0.29516497254371643f, -0.128021240234375f, 0.11054918169975281f, 0.1377691775560379f, 0.1696399748325348f, 0.2727983295917511f, -0.0686098039150238f, -0.03986215591430664f, 0.1474611908197403f, 0.34682804346084595f, 0.33145859837532043f, 0.08224188536405563f, -0.29904240369796753f, -0.06834937632083893f, 0.1596510261297226f, 0.20722360908985138f, 0.19027554988861084f, 0.20813216269016266f, 0.1725260615348816f, 0.015291500836610794f, 0.12334641814231873f, 0.25937196612358093f, 0.2710764706134796f, 0.11377822607755661f, -0.1391962468624115f, -0.33079421520233154f, -0.2627061903476715f, -0.0984959751367569f, 0.08456683903932571f, 0.11811736971139908f, 0.0442938432097435f, 0.019860943779349327f, -0.04266422614455223f, 0.08672583848237991f, 0.07628769427537918f, 0.21012648940086365f, 0.10351063311100006f, -0.01894400455057621f, -0.20230723917484283f, -0.22666902840137482f, -0.1542697697877884f, 0.019379211589694023f, -0.014183379709720612f, -0.05888577550649643f, -0.18586373329162598f, -0.12198146432638168f, -0.030586425215005875f, 0.059350598603487015f, 0.08019927889108658f, -0.02501624822616577f, -0.1361938714981079f, -0.5589939951896667f, -0.3456876277923584f, -0.16445280611515045f, -0.16514542698860168f, -0.1554103046655655f, -0.22473494708538055f, -0.2582305669784546f, -0.17491602897644043f, -0.1343841701745987f, -0.16627374291419983f, 0.036588624119758606f, 0.02404591627418995f, -0.12452519685029984f, -0.44357922673225403f, -0.5418598651885986f, -0.7201594114303589f, -0.34210968017578125f, -0.13781967759132385f, -0.18348301947116852f, -0.18597209453582764f, -0.28259333968162537f, -0.26027965545654297f, -0.050902705639600754f, 0.18705131113529205f, 0.23601971566677094f, -0.025989606976509094f, -0.5389277338981628f, -0.49662449955940247f, -0.02835979498922825f, -0.0029179512057453394f, -0.05996879190206528f, -0.08199851959943771f, -0.17880941927433014f, -0.23003952205181122f, -0.14063529670238495f, -0.13817711174488068f, -0.2090928852558136f, -0.03257432579994202f, -0.24776196479797363f, -0.5562469959259033f, -0.08041893690824509f, -0.06660483777523041f, -0.05256505310535431f, -0.10290598124265671f, -0.07644040882587433f, -0.11977986246347427f, -0.015408261679112911f, -0.11968274414539337f, -0.08889302611351013f, -0.043506164103746414f, -0.03532293438911438f, -0.07781685888767242f, -0.0905301421880722f, -0.052813176065683365f, -0.05991465598344803f, -0.08202150464057922f, -0.12007825076580048f, -0.1851540356874466f, 0.01700218953192234f, 0.027253909036517143f, -0.003140074200928211f, -0.00017975247465074062f, 0.07190767675638199f, -0.04162236675620079f, -0.08336903154850006f, -0.08148245513439178f, -0.09163682162761688f, -0.05959954485297203f, -0.052767880260944366f, 0.11138965934515f, 0.11147137731313705f, 0.28499552607536316f, 0.4081995189189911f, 0.6197577118873596f, 0.5225242376327515f, 0.3577561676502228f, 0.2343597561120987f, -0.13158898055553436f, -0.0638284757733345f, -0.07494796067476273f, 0.02730434760451317f, -0.034443408250808716f, 0.1175244078040123f, 0.11552690714597702f, 0.34995919466018677f, 0.6856287121772766f, 0.5376605987548828f, 0.5580086708068848f, 0.6331023573875427f, 0.36452117562294006f, -0.0733424723148346f, -0.10093874484300613f, -0.09160337597131729f, -0.026637615635991096f, -0.009394058026373386f, 0.02312387339770794f, 0.05302838981151581f, 0.43245622515678406f, 0.11696502566337585f, 0.2909618020057678f, 0.47571828961372375f, 0.4123741686344147f, 0.18549410998821259f, -0.056534647941589355f, -0.12211225926876068f, -0.06255298852920532f, 0.0440378375351429f, 0.047117844223976135f, 0.026361223310232162f, -0.03694555163383484f, -0.10559729486703873f, -0.3155441880226135f, 0.2514262795448303f, 0.20099873840808868f, -0.02999958209693432f, -0.15480521321296692f, -0.04061497002840042f, -0.06930723041296005f, -0.1189359799027443f, 0.010268820449709892f, 0.10163214057683945f, 0.013362090103328228f, -0.2131308615207672f, -0.6197457313537598f, -0.529921293258667f, 0.1376730054616928f, -0.09130391478538513f, -0.2795598804950714f, -0.1671583652496338f, -0.08246120065450668f, -0.05602220073342323f, -0.09706252068281174f, 0.01406314130872488f, 0.11263811588287354f, -0.17953209578990936f, -0.58905029296875f, -0.5804204344749451f, -0.3477363884449005f, 0.0682666227221489f, -0.3046855926513672f, -0.4240149259567261f, -0.2732861638069153f, -0.07137908041477203f, -0.06252346932888031f, -0.12405652552843094f, -0.05115937069058418f, 0.002449428429827094f, -0.24711914360523224f, -0.28536826372146606f, -0.23223166167736053f, -0.11706184595823288f, -0.11007503420114517f, -0.4178146719932556f, -0.387251079082489f, -0.21510770916938782f, -0.11449731141328812f, -0.03695147484540939f, -0.04167623817920685f, -0.009106853976845741f, 0.013654214330017567f, -0.10812334716320038f, -0.04776855558156967f, 0.009527517482638359f, 0.1346834897994995f, 0.08257395774126053f, 0.05902734026312828f, -0.1005672812461853f, -0.13631033897399902f, -0.06289815157651901f, -0.08358224481344223f, -0.05425484851002693f, -0.07321859896183014f, -0.09587734192609787f, -0.06826870143413544f, 0.0005213826079852879f, 0.0971769317984581f, 0.2670041024684906f, 0.29097047448158264f, 0.21528026461601257f, 0.06089432165026665f, -0.04401031881570816f, -0.10869409143924713f, -0.03334997966885567f, -0.049818720668554306f, -0.09690563380718231f, -0.08222121000289917f, -0.002506065182387829f, 0.0269855335354805f, 0.10770534723997116f, 0.1726396232843399f, 0.27979859709739685f, 0.10961267352104187f, -0.025166122242808342f, -0.04846243932843208f, -0.07263263314962387f, -0.08060671389102936f, -0.08127797394990921f, -0.01592903956770897f, -0.04803371801972389f, -0.030108334496617317f, 0.007233304437249899f, -0.05178598687052727f, 0.027525367215275764f, -0.037656351923942566f, -0.1288183033466339f, -0.08697419613599777f, -0.08810059726238251f, -0.04874841868877411f, -0.040638379752635956f, -0.14467135071754456f, -0.23993916809558868f, -0.18299514055252075f, -0.7984580397605896f, -0.811755895614624f, -0.4313136637210846f, -0.41955316066741943f, -0.451213002204895f, -0.6197400093078613f, -0.7018526792526245f, -0.14574439823627472f, -0.7914050221443176f, -0.5863263607025146f, -0.6638962030410767f, -0.06769239157438278f, -0.10760324448347092f, -0.5149354338645935f, -0.4172019362449646f, -0.05026639997959137f, -0.08256746828556061f, -0.013326526619493961f, 0.01599196344614029f, 0.3091108202934265f, 0.0924195647239685f, 0.056383166462183f, 0.1927783340215683f, -0.238931342959404f, 0.017855573445558548f, 0.20717591047286987f, 0.292038232088089f, 0.3481018841266632f, 0.5857113599777222f, 0.3495323359966278f, 0.7035618424415588f, 0.5099330544471741f, 0.39391595125198364f, 0.3199165165424347f, 0.37250998616218567f, -0.029331589117646217f, -0.07506188005208969f, 0.27348488569259644f, -0.00098079489544034f, 0.3198722302913666f, 0.29371657967567444f, 0.3969992697238922f, 0.3314336836338043f, 0.3074471950531006f, 0.3084886074066162f, 0.20388950407505035f, 0.3469943404197693f, 0.16980886459350586f, 0.17212551832199097f, -0.1216534897685051f, 0.021623428910970688f, -0.02662551775574684f, 0.13047601282596588f, 0.2732139229774475f, 0.3512498736381531f, 0.2838318347930908f, 0.5232653617858887f, 0.31358060240745544f, 0.18660061061382294f, 0.2371373474597931f, 0.029569746926426888f, -0.03061745874583721f, -0.16215799748897552f, 0.012122400104999542f, -0.09005279093980789f, 0.11532475054264069f, 0.06751596927642822f, 0.2200354039669037f, 0.39083221554756165f, 0.23296765983104706f, 0.2459665983915329f, 0.31325483322143555f, 0.13837449252605438f, 0.13463863730430603f, -0.6063146591186523f, -0.21586757898330688f, 0.18210077285766602f, 0.13016881048679352f, 0.06128881499171257f, -0.016626551747322083f, -0.01930413395166397f, 0.2028542309999466f, 0.1064530685544014f, 0.09418776631355286f, 0.16437232494354248f, 0.07718704640865326f, -0.018122220411896706f, -0.3436274528503418f, -0.2367309331893921f, 0.0220883097499609f, 0.20762908458709717f, -0.2323954552412033f, -0.16067518293857574f, -0.1751633733510971f, 0.06847454607486725f, -0.0669751912355423f, -0.03784309700131416f, 0.06746392697095871f, 0.11715518683195114f, 0.12026035040616989f, -0.21176305413246155f, -0.45445263385772705f, -0.0992853045463562f, -0.18018838763237f, -0.4084189832210541f, -0.23167648911476135f, -0.2362861931324005f, -0.10202174633741379f, -0.20473727583885193f, -0.08161868900060654f, -0.05264042690396309f, 0.06404358148574829f, 0.06374377012252808f, -0.030957721173763275f, -0.24494992196559906f, -0.11356164515018463f, -0.3284853994846344f, -0.29210156202316284f, -0.0993562862277031f, -0.10997731983661652f, -0.018413040786981583f, -0.023814857006072998f, -0.032110560685396194f, -0.035734910517930984f, -0.024944324046373367f, -0.10730256885290146f, -0.38573530316352844f, -0.3075372874736786f, -0.2685016393661499f, -0.2529907524585724f, -0.12904879450798035f, 0.016794541850686073f, 0.12668049335479736f, 0.2337627112865448f, 0.0982692688703537f, 0.11811548471450806f, 0.0616241954267025f, 0.11838702112436295f, -0.0016567381098866463f, -0.21289807558059692f, -0.31744584441185f, -0.472190797328949f, -0.03247363120317459f, 0.3016738295555115f, 0.20478907227516174f, 0.4378286898136139f, 0.21664851903915405f, 0.19401828944683075f, 0.18157315254211426f, 0.026584438979625702f, 0.06786991655826569f, 0.23225590586662292f, -0.09025599807500839f, -0.2666581869125366f, -0.0873495489358902f, -0.24262990057468414f, 0.09943594038486481f, 0.0703699141740799f, 0.06234106421470642f, 0.03648523613810539f, -0.021428130567073822f, -0.22326256334781647f, -0.02828376181423664f, -0.3102213442325592f, 0.14368440210819244f, -0.8864344358444214f},
  {-0.06580241024494171f, -0.12269937247037888f, -0.1543847620487213f, -0.15155252814292908f, -0.2675539255142212f, -0.5121028423309326f, -0.9816728830337524f, -0.518911600112915f, 0.1673702746629715f, 0.22577060759067535f, -0.5126670002937317f, -0.7677645087242126f, -0.20605136454105377f, -0.08975338190793991f, -0.2100600153207779f, -0.2748146951198578f, -0.36554327607154846f, -0.14196114242076874f, -0.0758623257279396f, -0.14928294718265533f, 0.025531716644763947f, -0.0193825401365757f, -0.0763653889298439f, -0.3098836839199066f, -0.2826853096485138f, -0.04548162221908569f, -0.11712340265512466f, -0.15154124796390533f, 0.07443538308143616f, 0.08448439836502075f, 0.08568811416625977f, 0.08867380023002625f, -0.06249100714921951f, 0.10348695516586304f, 0.0974339097738266f, 0.021565347909927368f, -0.1968066543340683f, -0.1810707300901413f, 0.0693398118019104f, -0.18455874919891357f, -0.1817113161087036f, -0.04320679232478142f, 0.10150004178285599f, 0.21842879056930542f, 0.18665292859077454f, 0.058656297624111176f, -0.016503378748893738f, 0.060189586132764816f, -0.00799637008458376f, -0.0256850216537714f, -0.01863992027938366f, 0.09575828909873962f, -0.3184319734573364f, -0.11409518122673035f, -0.0711551383137703f, 0.30826765298843384f, 0.3591601848602295f, 0.20817166566848755f, 0.07635524123907089f, -0.07506639510393143f, -0.024007586762309074f, -0.04437367245554924f, -0.015689203515648842f, 0.019149476662278175f, 0.28363552689552307f, -0.30597659945487976f, -0.08906849473714828f, 0.1088002398610115f, 0.2933694124221802f, 0.2606819272041321f, 0.23177921772003174f, 0.2760527431964874f, -0.009993817657232285f, -0.1897120326757431f, -0.2154555767774582f, -0.19489827752113342f, -0.13220931589603424f, 0.22062934935092926f, -0.1375565379858017f, -0.1478501409292221f, 0.012378770858049393f, 0.14825867116451263f, 0.12247409671545029f, 0.18956369161605835f, 0.2108040153980255f, 0.024191396310925484f, -0.1550576239824295f, -0.1506115049123764f, -0.2277076095342636f, -0.22610005736351013f, -0.2942647933959961f, -0.047876857221126556f, -0.1116422489285469f, 0.06508976221084595f, 0.017240457236766815f, 0.032701198011636734f, 0.0570843443274498f, 0.07894092053174973f, -0.06917992234230042f, -0.04908942058682442f, 0.037443965673446655f, 0.10190080106258392f, 0.06094091758131981f, -0.021870087832212448f, -0.030284514650702477f, 0.07302425056695938f, 0.07491329312324524f, 0.015268627554178238f, -0.22817523777484894f, -0.2108214646577835f, -0.11163084208965302f, -0.04288126155734062f, -0.06735628098249435f, 0.0010019672336056828f, 0.16270288825035095f, 0.013213396072387695f, 0.02237832359969616f, -0.058684930205345154f, 0.08095110952854156f, 0.1276511698961258f, 0.09169145673513412f, -0.010149961337447166f, -0.10061798244714737f, -0.006618971470743418f, -0.11024604737758636f, -0.04408290237188339f, -0.038696251809597015f, 0.03302996605634689f, 0.09079036861658096f, 0.2529437243938446f, -0.0640297681093216f, -0.008545612916350365f, 0.027831055223941803f, 0.05988365784287453f, 0.05324462056159973f, 0.09789466857910156f, 0.06310397386550903f, 0.08245722949504852f, 9.095850691664964e-05f, -0.006011113524436951f, 0.02219979278743267f, 0.1425045132637024f, 0.16733920574188232f, -0.13660520315170288f, -0.03172556683421135f, -0.01773543283343315f, 0.0474431999027729f, 0.04247194528579712f, 0.012074940837919712f, 0.02077586203813553f, 0.006859268993139267f, 0.012637034058570862f, -0.11906784027814865f, -0.15487459301948547f, -0.08868007361888885f, 0.09014071524143219f, -0.11380396038293839f, -0.08785352110862732f, -0.08916477859020233f, -0.05111316964030266f, -0.028253210708498955f, 0.08777264505624771f, 0.13381503522396088f, 0.10613995045423508f, 0.002843019086867571f, -0.0469614639878273f, -0.07180309295654297f, 0.03748679906129837f, 0.1089383065700531f, -0.19315101206302643f, -0.3343709409236908f, -0.16667990386486053f, -0.09003037959337234f, -0.23950044810771942f, -0.2727215886116028f, -0.6025211811065674f, -0.19554585218429565f, -0.18232694268226624f, -0.23507875204086304f, -0.20393075048923492f, -0.49090567231178284f, -0.4619729518890381f, -0.23733949661254883f, -0.4188968241214752f, -0.13305799663066864f, -0.2380111664533615f, -0.36780285835266113f, -0.11802588403224945f, 0.052842188626527786f, 0.17867283523082733f, 0.2340102195739746f, 0.17328767478466034f, 0.0010769348591566086f, 0.09404196590185165f, 0.08057572692632675f, -0.5921054482460022f, -0.4197821021080017f, -0.2825261950492859f, -0.30760321021080017f, -0.1300516128540039f, -0.1157415360212326f, -0.008322468027472496f, 0.26108455657958984f, 0.30968955159187317f, 0.2765600383281708f, 0.3195405602455139f, 0.21223385632038116f, 0.13750241696834564f, -0.30329442024230957f, -0.5091121792793274f, -0.31521090865135193f, -0.17390131950378418f, -0.12932080030441284f, -0.06793076545000076f, 0.02716546691954136f, 0.22294826805591583f, 0.3815193474292755f, 0.5308301448822021f, 0.40079304575920105f, 0.36063551902770996f, 0.32175126671791077f, -0.7019405364990234f, -0.13433365523815155f, -0.191801056265831f, -0.010035419836640358f, -0.04308478534221649f, -0.026020852848887444f, -0.004616368096321821f, 0.16384439170360565f, 0.22876161336898804f, 0.19740208983421326f, 0.2003064900636673f, 0.4880762994289398f, 0.6494807004928589f, -0.7992887496948242f, -0.03582095727324486f, 0.020900189876556396f, 0.050280336290597916f, 0.012650559656322002f, 0.06459053605794907f, 0.08621390163898468f, 0.05905741825699806f, -0.10583317279815674f, -0.20600146055221558f, -0.05131823197007179f, 0.24419096112251282f, 0.7591332793235779f, -0.16304390132427216f, 0.16349028050899506f, 0.1160050630569458f, 0.07726545631885529f, 0.19500072300434113f, 0.19021055102348328f, 0.14576683938503265f, -0.10609312355518341f, -0.24187009036540985f, -0.3388133645057678f, -0.3354175388813019f, -0.45998457074165344f, 0.15758340060710907f, -0.25511208176612854f, 0.17142599821090698f, 0.09479211270809174f, 0.08537133783102036f, 0.22583574056625366f, 0.18055452406406403f, 0.038245853036642075f, -0.1525588035583496f, -0.16376525163650513f, -0.1815963089466095f, -0.1860741823911667f, -0.1219378337264061f, -0.17365309596061707f, -0.0837523564696312f, 0.20592528581619263f, 0.13206513226032257f, 0.07377701252698898f, 0.04460497573018074f, 0.04709938168525696f, -0.020010121166706085f, -0.07476713508367538f, -0.0863364115357399f, -0.1478954255580902f, -0.07632146030664444f, -0.06902205944061279f, -0.44459113478660583f, 0.17004330456256866f, 0.11673393100500107f, 0.2159520536661148f, 0.08813619613647461f, 0.059882793575525284f, 0.0266057588160038f, -0.0484243668615818f, -0.05361901596188545f, -0.05071514844894409f, 0.008228246122598648f, -0.04052788391709328f, -0.14619334042072296f, -0.7127902507781982f, -0.12929728627204895f, -0.12072999030351639f, -0.012806899845600128f, 0.1053910180926323f, 0.031056895852088928f, 0.1026553139090538f, 0.08675678074359894f, -0.008645239286124706f, 0.031125208362936974f, 0.003982863388955593f, 0.1401345580816269f, 0.03978387266397476f, -0.033335406333208084f, -0.33432066440582275f, 0.07411941885948181f, 0.005171380937099457f, 0.025206247344613075f, 0.11550527811050415f, 0.18998368084430695f, 0.11479845643043518f, 0.13061445951461792f, -0.03432117775082588f, -0.04965588077902794f, -0.013879261910915375f, 0.12272915989160538f, -0.2293323427438736f, 0.022739101201295853f, -0.05855298787355423f, 0.04072827100753784f, 0.018331559374928474f, 0.09615174680948257f, 0.3241209089756012f, 0.40360984206199646f, 0.3168657124042511f, 0.23667891323566437f, 0.15558136999607086f, 0.015573863871395588f, 0.3083263337612152f, -0.411065012216568f, 0.056523002684116364f, 0.10675934702157974f, 0.046061426401138306f, 0.07535804063081741f, 0.07052448391914368f, 0.01726280339062214f, 0.10897048562765121f, 0.09547802805900574f, 0.09977908432483673f, 0.07108539342880249f, 0.06965475529432297f, 0.12044340372085571f, 0.10468161851167679f, 0.12195204198360443f, 0.07457374036312103f, 0.02837286703288555f, 0.07905024290084839f, 0.09591706842184067f, -0.10458377003669739f, 0.025155767798423767f, -0.036247581243515015f, -0.021456053480505943f, -0.0051211463287472725f, 0.16300009191036224f, 0.10990893840789795f, 0.0643499568104744f, 0.06372275203466415f, 0.04955308511853218f, 0.07389958947896957f, 0.0408179797232151f, 0.10101908445358276f, 0.07926317304372787f, 0.18478666245937347f, -0.16582466661930084f, -0.18193475902080536f, 0.03961746394634247f, 0.10040560364723206f, 0.11253003031015396f, 0.03800050914287567f, 0.06752900779247284f, 0.11466538161039352f, 0.12671726942062378f, 0.15322905778884888f, 0.048709895461797714f, 0.14021798968315125f, 0.03202680125832558f, -0.33186420798301697f, -0.5888345837593079f, -0.4897339642047882f, -0.2470017969608307f, -0.0068441350013017654f, 0.04031170904636383f, 0.0492706261575222f, 0.10987529903650284f, 0.16743193566799164f, 0.12794387340545654f, 0.15605229139328003f, 0.23044127225875854f, -0.040999673306941986f, -0.391772985458374f, -0.4894765019416809f, -0.4363785982131958f, -0.3342984914779663f, -0.1364872008562088f, 0.043332409113645554f, 0.09479238837957382f, 0.0423625148832798f, -0.011958837509155273f, 0.0031569157727062702f, 0.18878619372844696f, 0.10886304080486298f, -0.15618565678596497f, -0.3423352837562561f, -0.22133611142635345f, -0.15979807078838348f, -0.1708499789237976f, -0.044662609696388245f, 0.07540682703256607f, 0.10776975750923157f, -0.002207033568993211f, -0.010461630299687386f, 0.1127040758728981f, 0.3505825102329254f, 0.08481749147176743f, 0.05338997021317482f, 0.03843959420919418f, 0.33657342195510864f, 0.04743950814008713f, 0.0387718640267849f, 0.06573552638292313f, 0.11393754184246063f, 0.08686845004558563f, -0.07587608695030212f, -0.2244769036769867f, 0.05366741493344307f, 0.2520732879638672f, 0.06236671283841133f, 0.048812441527843475f, 0.21054866909980774f, 0.2857745289802551f, 0.26009151339530945f, 0.21091243624687195f, 0.07533248513936996f, 0.13132408261299133f, 0.06912173330783844f, 0.011517190374433994f, -0.13209417462348938f, -0.16139188408851624f, -0.051338694989681244f, 0.007479118648916483f, 0.15808802843093872f, 0.11448430269956589f, 0.3516148030757904f, 0.2809964716434479f, 0.20407839119434357f, 0.09035991132259369f, 0.073126882314682f, 0.08287952840328217f, 0.03415655344724655f, -0.03142936900258064f, -0.27759072184562683f, -0.25334495306015015f, -0.056898508220911026f, 0.013048446737229824f, 0.10764716565608978f, 0.15869417786598206f, 0.12128672748804092f, 0.14022184908390045f, 0.08401549607515335f, 0.09446731209754944f, 0.10009362548589706f, 0.05579299479722977f, -0.011389246210455894f, 0.044887181371450424f, -0.01706733927130699f, -0.19052323698997498f, -0.146980881690979f, -0.21960127353668213f, -0.025636008009314537f, 0.1336628794670105f, 0.1678212732076645f, 0.15481284260749817f, 0.06231628358364105f, 0.11057564616203308f, 0.10059976577758789f, 0.027422241866588593f, 0.12177053838968277f, -0.046913109719753265f, 0.011755343526601791f, -0.11037663370370865f, -0.09790591150522232f, -0.04618597403168678f, 0.09700654447078705f, 0.12291130423545837f, 0.0797373354434967f, 0.04065188765525818f, 0.14230793714523315f, 0.048195917159318924f, 0.07558707892894745f, 0.010427646338939667f, 0.043079063296318054f, 0.05564238503575325f, 0.017031027004122734f, 0.05349348485469818f, 0.0446755588054657f, 0.054919611662626266f, 0.08605484664440155f, 0.11241960525512695f, 0.08196556568145752f, -0.2270202338695526f, -0.3097531497478485f, -0.045196883380413055f, -0.497407466173172f, -0.9484439492225647f, -0.7532332539558411f, -0.6145194172859192f, -0.21741487085819244f, -0.04771120846271515f, -0.3521089255809784f, -0.5233279466629028f, -1.0773861408233643f, -0.5969425439834595f, -0.3972688913345337f, -0.2666281759738922f, -0.2846757769584656f, -0.05964665114879608f, -0.08945050835609436f, -0.2657170593738556f, 0.03726371377706528f, 0.17044766247272491f, 0.14000476896762848f, 0.2953070402145386f, 0.13116741180419922f, 0.15214307606220245f, -0.4711294174194336f, -0.18508821725845337f, 0.0219300277531147f, 0.08275559544563293f, 0.19454865157604218f, 0.117733433842659f, 0.06738097220659256f, -0.03630230203270912f, -0.058356475085020065f, 0.2627182900905609f, 0.24821636080741882f, 0.15194447338581085f, -0.0346609503030777f, -0.07900658994913101f, -0.645135223865509f, 0.17419083416461945f, 0.0005491585470736027f, 0.09607809782028198f, 0.026705123484134674f, 0.035516541451215744f, -0.09247832745313644f, -0.4434647560119629f, -0.46420472860336304f, -0.5007340908050537f, -0.11818241328001022f, -0.2115863412618637f, -0.0177614688873291f, -0.8544595837593079f, 0.14094966650009155f, 0.04323423281311989f, 0.19111469388008118f, 0.27812403440475464f, -0.04187801852822304f, -0.0066500473767519f, -0.5465074181556702f, -1.0144069194793701f, -1.081094741821289f, -0.9610206484794617f, -0.4994247853755951f, -0.06375064700841904f, -0.40019625425338745f, 0.027864178642630577f, 0.1744641810655594f, 0.15130947530269623f, 0.23827636241912842f, 0.12973226606845856f, 0.04893065616488457f, -0.4309232532978058f, -1.1653327941894531f, -1.125044822692871f, -1.3046917915344238f, -1.1831938028335571f, -0.13956190645694733f, -0.1815500259399414f, -0.24929282069206238f, -0.032220467925071716f, 0.04410712793469429f, 0.13239987194538116f, 0.06564951688051224f, 0.05809037759900093f, -0.29930010437965393f, -0.6225245594978333f, -0.7023000717163086f, -0.5059632658958435f, -0.6409091949462891f, -0.7540847063064575f, -0.1800505369901657f, -0.42665356397628784f, -0.31632131338119507f, -0.30230218172073364f, -0.3301170766353607f, -0.23083248734474182f, -0.16198940575122833f, -0.1813618391752243f, -0.2054075300693512f, -0.1645873486995697f, -0.032341368496418f, -0.14733973145484924f, -0.10631432384252548f, -0.1568693369626999f, -0.08077312260866165f, -0.22723188996315002f, -0.2479182779788971f, -0.6366618275642395f, -0.5560468435287476f, -0.23546762764453888f, 0.006683283019810915f, 0.04409221187233925f, 0.10756117105484009f, 0.14418374001979828f, -0.08983077853918076f, 0.004383784253150225f, -0.14148789644241333f, -0.07614915072917938f, -0.1587045043706894f, -0.1399296075105667f, -0.2514388859272003f, -0.32631704211235046f, -0.06111742928624153f, 0.01316385343670845f, -0.10437054932117462f, 0.15770339965820312f, 0.028142765164375305f, -0.027546541765332222f, 0.1435815691947937f, -0.1317867934703827f, -0.0688757449388504f, -0.06198903173208237f, -0.12636610865592957f, -0.12474814802408218f, -0.20608234405517578f, -0.010528309270739555f, -0.007891052402555943f, -0.06489913165569305f, 0.09636566042900085f, 0.0577523447573185f, 0.21861551702022552f, 0.1604900360107422f, -0.1261497586965561f, -0.12734641134738922f, -0.18282951414585114f, -0.11391988396644592f, -0.1659403145313263f, 0.07875323295593262f, -0.1208333820104599f, -0.11033966392278671f, -0.10618677735328674f, -0.2675970494747162f, 0.13391558825969696f, -0.38933926820755005f, -0.03814519941806793f, -0.04093313217163086f, -0.11993331462144852f, -0.1289788782596588f, -0.36143890023231506f, -0.3803844749927521f, -0.28436729311943054f, -0.17735880613327026f, 0.16194693744182587f, -0.15961696207523346f, -0.11792168021202087f, -0.28611570596694946f, -0.19097712635993958f, -0.2620636224746704f},
